<?xml version="1.0"?>
<MethodSetup Method="BDT::BDTG">
  <GeneralInfo>
    <Info name="TMVA Release" value="4.2.1 [262657]"/>
    <Info name="ROOT Release" value="6.08/06 [395270]"/>
    <Info name="Creator" value="zhangy"/>
    <Info name="Date" value="Wed Mar 28 19:37:59 2018"/>
    <Info name="Host" value="Linux lcgapp-slc6-x86-64-3.cern.ch 2.6.32-642.4.2.el6.x86_64 #1 SMP Wed Aug 24 09:19:54 CEST 2016 x86_64 x86_64 x86_64 GNU/Linux"/>
    <Info name="Dir" value="/eos/lhcb/user/z/zhangy/Bp2ChicPhiK/MVA"/>
    <Info name="Training events" value="41800"/>
    <Info name="TrainingTime" value="5.40013320e+01"/>
    <Info name="AnalysisType" value="Classification"/>
  </GeneralInfo>
  <Options>
    <Option name="V" modified="Yes">False</Option>
    <Option name="VerbosityLevel" modified="No">Default</Option>
    <Option name="VarTransform" modified="No">None</Option>
    <Option name="H" modified="Yes">False</Option>
    <Option name="CreateMVAPdfs" modified="No">False</Option>
    <Option name="IgnoreNegWeightsInTraining" modified="No">False</Option>
    <Option name="NTrees" modified="Yes">1000</Option>
    <Option name="MaxDepth" modified="Yes">2</Option>
    <Option name="MinNodeSize" modified="Yes">2.5%</Option>
    <Option name="nCuts" modified="Yes">20</Option>
    <Option name="BoostType" modified="Yes">Grad</Option>
    <Option name="AdaBoostR2Loss" modified="No">quadratic</Option>
    <Option name="UseBaggedBoost" modified="Yes">True</Option>
    <Option name="Shrinkage" modified="Yes">1.000000e-01</Option>
    <Option name="AdaBoostBeta" modified="No">5.000000e-01</Option>
    <Option name="UseRandomisedTrees" modified="No">False</Option>
    <Option name="UseNvars" modified="No">3</Option>
    <Option name="UsePoissonNvars" modified="No">True</Option>
    <Option name="BaggedSampleFraction" modified="Yes">5.000000e-01</Option>
    <Option name="UseYesNoLeaf" modified="No">True</Option>
    <Option name="NegWeightTreatment" modified="No">pray</Option>
    <Option name="Css" modified="No">1.000000e+00</Option>
    <Option name="Cts_sb" modified="No">1.000000e+00</Option>
    <Option name="Ctb_ss" modified="No">1.000000e+00</Option>
    <Option name="Cbb" modified="No">1.000000e+00</Option>
    <Option name="NodePurityLimit" modified="No">5.000000e-01</Option>
    <Option name="SeparationType" modified="No">giniindex</Option>
    <Option name="RegressionLossFunctionBDTG" modified="No">huber</Option>
    <Option name="HuberQuantile" modified="No">7.000000e-01</Option>
    <Option name="DoBoostMonitor" modified="No">False</Option>
    <Option name="UseFisherCuts" modified="No">False</Option>
    <Option name="MinLinCorrForFisher" modified="No">8.000000e-01</Option>
    <Option name="UseExclusiveVars" modified="No">False</Option>
    <Option name="DoPreselection" modified="No">False</Option>
    <Option name="SigToBkgFraction" modified="No">1.000000e+00</Option>
    <Option name="PruneMethod" modified="No">nopruning</Option>
    <Option name="PruneStrength" modified="No">0.000000e+00</Option>
    <Option name="PruningValFraction" modified="No">5.000000e-01</Option>
    <Option name="SkipNormalization" modified="No">False</Option>
    <Option name="nEventsMin" modified="No">0</Option>
    <Option name="UseBaggedGrad" modified="No">False</Option>
    <Option name="GradBaggingFraction" modified="No">5.000000e-01</Option>
    <Option name="UseNTrainEvents" modified="No">0</Option>
    <Option name="NNodesMax" modified="No">0</Option>
  </Options>
  <Variables NVar="9">
    <Variable VarIndex="0" Expression="minPT" Label="minPT" Title="minPT" Unit="" Internal="minPT" Type="F" Min="2.00020889e+02" Max="4.26639648e+03"/>
    <Variable VarIndex="1" Expression="log(minIPCHI2)" Label="log(minIPCHI2)" Title="log(minIPCHI2)" Unit="" Internal="log_minIPCHI2_" Type="F" Min="1.38631594e+00" Max="9.13989067e+00"/>
    <Variable VarIndex="2" Expression="minPID" Label="minPID" Title="minPID" Unit="" Internal="minPID" Type="F" Min="1.00001276e-01" Max="9.99262631e-01"/>
    <Variable VarIndex="3" Expression="gamma_CL" Label="gamma_CL" Title="gamma_CL" Unit="" Internal="gamma_CL" Type="F" Min="1.27262929e-05" Max="1.00000000e+00"/>
    <Variable VarIndex="4" Expression="gamma_PT" Label="gamma_PT" Title="gamma_PT" Unit="" Internal="gamma_PT" Type="F" Min="4.00001160e+02" Max="6.27980225e+03"/>
    <Variable VarIndex="5" Expression="Bp_IPCHI2_OWNPV" Label="Bp_IPCHI2_OWNPV" Title="Bp_IPCHI2_OWNPV" Unit="" Internal="Bp_IPCHI2_OWNPV" Type="F" Min="8.86285998e-05" Max="9.99597778e+01"/>
    <Variable VarIndex="6" Expression="Bp_PT" Label="Bp_PT" Title="Bp_PT" Unit="" Internal="Bp_PT" Type="F" Min="1.17104645e+01" Max="5.18635977e+04"/>
    <Variable VarIndex="7" Expression="log(Bp_FDCHI2_OWNPV)" Label="log(Bp_FDCHI2_OWNPV)" Title="log(Bp_FDCHI2_OWNPV)" Unit="" Internal="log_Bp_FDCHI2_OWNPV_" Type="F" Min="2.84518051e+00" Max="1.53789673e+01"/>
    <Variable VarIndex="8" Expression="Bp_ConstChic1Fit_chi2[0]" Label="Bp_ConstChic1Fit_chi2[0]" Title="Bp_ConstChic1Fit_chi2[0]" Unit="" Internal="Bp_ConstChic1Fit_chi2_0_" Type="F" Min="1.66449690e+00" Max="4.97765778e+02"/>
  </Variables>
  <Spectators NSpec="0"/>
  <Classes NClass="2">
    <Class Name="Signal" Index="0"/>
    <Class Name="Background" Index="1"/>
  </Classes>
  <Transformations NTransformations="0"/>
  <MVAPdfs/>
  <Weights NTrees="1000" AnalysisType="1">
    <BinaryTree type="DecisionTree" boostWeight="1.0000000000000000e+00" itree="0">
      <Node pos="s" depth="0" NCoef="0" IVar="2" Cut="3.1411111354827881e-01" cType="1" res="-1.9366298802196980e-03" rms="4.9999624490737915e-01" purity="4.9806338548660278e-01" nType="0">
        <Node pos="l" depth="1" NCoef="0" IVar="8" Cut="2.6369634628295898e+01" cType="1" res="-4.1522800922393799e-01" rms="2.7854207158088684e-01" purity="8.4771975874900818e-02" nType="0">
          <Node pos="l" depth="2" NCoef="0" IVar="-1" Cut="0.0000000000000000e+00" cType="1" res="1.7583893612027168e-02" rms="4.9053719639778137e-01" purity="5.9681564569473267e-01" nType="-99"/>
          <Node pos="r" depth="2" NCoef="0" IVar="-1" Cut="0.0000000000000000e+00" cType="1" res="-1.1331667751073837e-01" rms="1.7131604254245758e-01" purity="3.0265167355537415e-02" nType="-99"/>
        </Node>
        <Node pos="r" depth="1" NCoef="0" IVar="2" Cut="4.1199746727943420e-01" cType="1" res="4.5610600709915161e-01" rms="2.0485921204090118e-01" purity="9.5610606670379639e-01" nType="0">
          <Node pos="l" depth="2" NCoef="0" IVar="-1" Cut="0.0000000000000000e+00" cType="1" res="2.6155300438404083e-02" rms="4.7784969210624695e-01" purity="6.4717227220535278e-01" nType="-99"/>
          <Node pos="r" depth="2" NCoef="0" IVar="-1" Cut="0.0000000000000000e+00" cType="1" res="7.5015112757682800e-02" rms="1.3108067214488983e-01" purity="9.8251205682754517e-01" nType="-99"/>
        </Node>
      </Node>
    </BinaryTree>
    <BinaryTree type="DecisionTree" boostWeight="1.0000000000000000e+00" itree="1">
      <Node pos="s" depth="0" NCoef="0" IVar="2" Cut="3.1411236524581909e-01" cType="1" res="9.0066185221076012e-03" rms="4.5944103598594666e-01" purity="4.9990406632423401e-01" nType="0">
        <Node pos="l" depth="1" NCoef="0" IVar="1" Cut="2.8177285194396973e+00" cType="1" res="-3.6344563961029053e-01" rms="2.6996836066246033e-01" purity="8.6753442883491516e-02" nType="0">
          <Node pos="l" depth="2" NCoef="0" IVar="-1" Cut="0.0000000000000000e+00" cType="1" res="-1.0172528028488159e-01" rms="1.6631782054901123e-01" purity="3.0786419287323952e-02" nType="-99"/>
          <Node pos="r" depth="2" NCoef="0" IVar="-1" Cut="0.0000000000000000e+00" cType="1" res="3.4274548292160034e-02" rms="4.5249733328819275e-01" purity="6.7096620798110962e-01" nType="-99"/>
        </Node>
        <Node pos="r" depth="1" NCoef="0" IVar="2" Cut="4.7737416625022888e-01" cType="1" res="4.1697686910629272e-01" rms="2.0995104312896729e-01" purity="9.5245361328125000e-01" nType="0">
          <Node pos="l" depth="2" NCoef="0" IVar="-1" Cut="0.0000000000000000e+00" cType="1" res="3.3210106194019318e-02" rms="4.4921180605888367e-01" purity="7.1440452337265015e-01" nType="-99"/>
          <Node pos="r" depth="2" NCoef="0" IVar="-1" Cut="0.0000000000000000e+00" cType="1" res="7.0425517857074738e-02" rms="1.0441610962152481e-01" purity="9.8897576332092285e-01" nType="-99"/>
        </Node>
      </Node>
    </BinaryTree>
    <BinaryTree type="DecisionTree" boostWeight="1.0000000000000000e+00" itree="2">
      <Node pos="s" depth="0" NCoef="0" IVar="2" Cut="3.5693308711051941e-01" cType="1" res="1.5261579304933548e-02" rms="4.2335683107376099e-01" purity="4.9827799201011658e-01" nType="0">
        <Node pos="l" depth="1" NCoef="0" IVar="1" Cut="2.6281445026397705e+00" cType="1" res="-3.1070435047149658e-01" rms="2.7407985925674438e-01" purity="9.9193073809146881e-02" nType="0">
          <Node pos="l" depth="2" NCoef="0" IVar="-1" Cut="0.0000000000000000e+00" cType="1" res="-9.1593451797962189e-02" rms="1.7660464346408844e-01" purity="3.5628516227006912e-02" nType="-99"/>
          <Node pos="r" depth="2" NCoef="0" IVar="-1" Cut="0.0000000000000000e+00" cType="1" res="2.8480788692831993e-02" rms="4.5581179857254028e-01" purity="6.4764738082885742e-01" nType="-99"/>
        </Node>
        <Node pos="r" depth="1" NCoef="0" IVar="2" Cut="4.4937381148338318e-01" cType="1" res="3.9946255087852478e-01" rms="1.7057338356971741e-01" purity="9.6866083145141602e-01" nType="0">
          <Node pos="l" depth="2" NCoef="0" IVar="-1" Cut="0.0000000000000000e+00" cType="1" res="3.5341233015060425e-02" rms="4.3378371000289917e-01" purity="7.4504774808883667e-01" nType="-99"/>
          <Node pos="r" depth="2" NCoef="0" IVar="-1" Cut="0.0000000000000000e+00" cType="1" res="6.5877415239810944e-02" rms="1.1080433428287506e-01" purity="9.8748672008514404e-01" nType="-99"/>
        </Node>
      </Node>
    </BinaryTree>
    <BinaryTree type="DecisionTree" boostWeight="1.0000000000000000e+00" itree="3">
      <Node pos="s" depth="0" NCoef="0" IVar="2" Cut="3.1411111354827881e-01" cType="1" res="2.0637666806578636e-02" rms="3.9154687523841858e-01" purity="4.9763280153274536e-01" nType="0">
        <Node pos="l" depth="1" NCoef="0" IVar="8" Cut="2.6527292251586914e+01" cType="1" res="-2.8587034344673157e-01" rms="2.4431309103965759e-01" purity="8.1999309360980988e-02" nType="0">
          <Node pos="l" depth="2" NCoef="0" IVar="-1" Cut="0.0000000000000000e+00" cType="1" res="2.2129952907562256e-02" rms="4.6110844612121582e-01" purity="5.8346813917160034e-01" nType="-99"/>
          <Node pos="r" depth="2" NCoef="0" IVar="-1" Cut="0.0000000000000000e+00" cType="1" res="-8.6989268660545349e-02" rms="1.5233439207077026e-01" purity="2.7321631088852882e-02" nType="-99"/>
        </Node>
        <Node pos="r" depth="1" NCoef="0" IVar="2" Cut="4.1208791732788086e-01" cType="1" res="3.5661253333091736e-01" rms="2.0017826557159424e-01" purity="9.5322418212890625e-01" nType="0">
          <Node pos="l" depth="2" NCoef="0" IVar="-1" Cut="0.0000000000000000e+00" cType="1" res="1.8589410930871964e-02" rms="4.7211748361587524e-01" purity="6.3199859857559204e-01" nType="-99"/>
          <Node pos="r" depth="2" NCoef="0" IVar="-1" Cut="0.0000000000000000e+00" cType="1" res="6.1517667025327682e-02" rms="1.3398495316505432e-01" purity="9.8134732246398926e-01" nType="-99"/>
        </Node>
      </Node>
    </BinaryTree>
    <BinaryTree type="DecisionTree" boostWeight="1.0000000000000000e+00" itree="4">
      <Node pos="s" depth="0" NCoef="0" IVar="2" Cut="2.7128913998603821e-01" cType="1" res="2.7009142562747002e-02" rms="3.6460492014884949e-01" purity="4.9928522109985352e-01" nType="0">
        <Node pos="l" depth="1" NCoef="0" IVar="1" Cut="2.4073176383972168e+00" cType="1" res="-2.6080700755119324e-01" rms="2.2478654980659485e-01" purity="7.1712017059326172e-02" nType="0">
          <Node pos="l" depth="2" NCoef="0" IVar="-1" Cut="0.0000000000000000e+00" cType="1" res="-8.3065979182720184e-02" rms="1.3889074325561523e-01" purity="2.2054286673665047e-02" nType="-99"/>
          <Node pos="r" depth="2" NCoef="0" IVar="-1" Cut="0.0000000000000000e+00" cType="1" res="9.6790306270122528e-03" rms="4.5605388283729553e-01" purity="4.9263179302215576e-01" nType="-99"/>
        </Node>
        <Node pos="r" depth="1" NCoef="0" IVar="5" Cut="1.4177172660827637e+01" cType="1" res="3.1782388687133789e-01" rms="2.1892616152763367e-01" purity="9.3131303787231445e-01" nType="0">
          <Node pos="l" depth="2" NCoef="0" IVar="-1" Cut="0.0000000000000000e+00" cType="1" res="5.7547040283679962e-02" rms="1.6793298721313477e-01" purity="9.6173626184463501e-01" nType="-99"/>
          <Node pos="r" depth="2" NCoef="0" IVar="-1" Cut="0.0000000000000000e+00" cType="1" res="-1.3392955064773560e-02" rms="4.3409270048141479e-01" purity="4.7313392162322998e-01" nType="-99"/>
        </Node>
      </Node>
    </BinaryTree>
    <BinaryTree type="DecisionTree" boostWeight="1.0000000000000000e+00" itree="5">
      <Node pos="s" depth="0" NCoef="0" IVar="2" Cut="3.5693308711051941e-01" cType="1" res="2.8233403339982033e-02" rms="3.3899572491645813e-01" purity="4.9537572264671326e-01" nType="0">
        <Node pos="l" depth="1" NCoef="0" IVar="1" Cut="2.7077002525329590e+00" cType="1" res="-2.1159961819648743e-01" rms="2.4963089823722839e-01" purity="1.0157811641693115e-01" nType="0">
          <Node pos="l" depth="2" NCoef="0" IVar="-1" Cut="0.0000000000000000e+00" cType="1" res="-7.4353724718093872e-02" rms="1.7489793896675110e-01" purity="3.7816446274518967e-02" nType="-99"/>
          <Node pos="r" depth="2" NCoef="0" IVar="-1" Cut="0.0000000000000000e+00" cType="1" res="3.3697109669446945e-02" rms="4.2441895604133606e-01" purity="6.9744890928268433e-01" nType="-99"/>
        </Node>
        <Node pos="r" depth="1" NCoef="0" IVar="1" Cut="1.7293012142181396e+00" cType="1" res="3.1856536865234375e-01" rms="1.5707536041736603e-01" purity="9.7209095954895020e-01" nType="0">
          <Node pos="l" depth="2" NCoef="0" IVar="-1" Cut="0.0000000000000000e+00" cType="1" res="2.6413517072796822e-02" rms="3.8910412788391113e-01" purity="7.8614801168441772e-01" nType="-99"/>
          <Node pos="r" depth="2" NCoef="0" IVar="-1" Cut="0.0000000000000000e+00" cType="1" res="5.7043015956878662e-02" rms="1.1174122989177704e-01" purity="9.8627859354019165e-01" nType="-99"/>
        </Node>
      </Node>
    </BinaryTree>
    <BinaryTree type="DecisionTree" boostWeight="1.0000000000000000e+00" itree="6">
      <Node pos="s" depth="0" NCoef="0" IVar="2" Cut="2.7129575610160828e-01" cType="1" res="3.3208955079317093e-02" rms="3.1771045923233032e-01" purity="5.0021326541900635e-01" nType="0">
        <Node pos="l" depth="1" NCoef="0" IVar="8" Cut="2.6914911270141602e+01" cType="1" res="-2.0552819967269897e-01" rms="2.0974576473236084e-01" purity="6.9213308393955231e-02" nType="0">
          <Node pos="l" depth="2" NCoef="0" IVar="-1" Cut="0.0000000000000000e+00" cType="1" res="1.7276057973504066e-02" rms="4.4443124532699585e-01" purity="5.1451259851455688e-01" nType="-99"/>
          <Node pos="r" depth="2" NCoef="0" IVar="-1" Cut="0.0000000000000000e+00" cType="1" res="-7.4728406965732574e-02" rms="1.3644428551197052e-01" purity="2.3523591458797455e-02" nType="-99"/>
        </Node>
        <Node pos="r" depth="1" NCoef="0" IVar="5" Cut="1.4177172660827637e+01" cType="1" res="2.7286556363105774e-01" rms="2.0846025645732880e-01" purity="9.3287312984466553e-01" nType="0">
          <Node pos="l" depth="2" NCoef="0" IVar="-1" Cut="0.0000000000000000e+00" cType="1" res="5.2592981606721878e-02" rms="1.6743680834770203e-01" purity="9.6030223369598389e-01" nType="-99"/>
          <Node pos="r" depth="2" NCoef="0" IVar="-1" Cut="0.0000000000000000e+00" cType="1" res="-1.7105095088481903e-02" rms="4.2022222280502319e-01" purity="4.6054309606552124e-01" nType="-99"/>
        </Node>
      </Node>
    </BinaryTree>
    <BinaryTree type="DecisionTree" boostWeight="1.0000000000000000e+00" itree="7">
      <Node pos="s" depth="0" NCoef="0" IVar="2" Cut="3.5693308711051941e-01" cType="1" res="3.6344528198242188e-02" rms="2.9900333285331726e-01" purity="5.0252747535705566e-01" nType="0">
        <Node pos="l" depth="1" NCoef="0" IVar="8" Cut="2.6193416595458984e+01" cType="1" res="-1.6468650102615356e-01" rms="2.3862479627132416e-01" purity="1.0284858196973801e-01" nType="0">
          <Node pos="l" depth="2" NCoef="0" IVar="-1" Cut="0.0000000000000000e+00" cType="1" res="2.9894158244132996e-02" rms="4.2193722724914551e-01" purity="6.3550454378128052e-01" nType="-99"/>
          <Node pos="r" depth="2" NCoef="0" IVar="-1" Cut="0.0000000000000000e+00" cType="1" res="-6.8106137216091156e-02" rms="1.6561889648437500e-01" purity="3.7063457071781158e-02" nType="-99"/>
        </Node>
        <Node pos="r" depth="1" NCoef="0" IVar="2" Cut="4.7938287258148193e-01" cType="1" res="2.7211940288543701e-01" rms="1.5648178756237030e-01" purity="9.7128212451934814e-01" nType="0">
          <Node pos="l" depth="2" NCoef="0" IVar="-1" Cut="0.0000000000000000e+00" cType="1" res="2.3427316918969154e-02" rms="3.9715415239334106e-01" purity="7.7838706970214844e-01" nType="-99"/>
          <Node pos="r" depth="2" NCoef="0" IVar="-1" Cut="0.0000000000000000e+00" cType="1" res="5.3533799946308136e-02" rms="8.8104799389839172e-02" purity="9.9180060625076294e-01" nType="-99"/>
        </Node>
      </Node>
    </BinaryTree>
    <BinaryTree type="DecisionTree" boostWeight="1.0000000000000000e+00" itree="8">
      <Node pos="s" depth="0" NCoef="0" IVar="2" Cut="2.7128553390502930e-01" cType="1" res="3.1406156718730927e-02" rms="2.8417235612869263e-01" purity="4.9111679196357727e-01" nType="0">
        <Node pos="l" depth="1" NCoef="0" IVar="8" Cut="2.5209524154663086e+01" cType="1" res="-1.6009545326232910e-01" rms="2.0555524528026581e-01" purity="7.2493277490139008e-02" nType="0">
          <Node pos="l" depth="2" NCoef="0" IVar="-1" Cut="0.0000000000000000e+00" cType="1" res="2.1562278270721436e-02" rms="4.4368350505828857e-01" purity="5.7460004091262817e-01" nType="-99"/>
          <Node pos="r" depth="2" NCoef="0" IVar="-1" Cut="0.0000000000000000e+00" cType="1" res="-6.8051479756832123e-02" rms="1.4113676548004150e-01" purity="2.4893768131732941e-02" nType="-99"/>
        </Node>
        <Node pos="r" depth="1" NCoef="0" IVar="1" Cut="1.7555338144302368e+00" cType="1" res="2.3104456067085266e-01" rms="2.0689180493354797e-01" purity="9.2752742767333984e-01" nType="0">
          <Node pos="l" depth="2" NCoef="0" IVar="-1" Cut="0.0000000000000000e+00" cType="1" res="-2.7257807087153196e-03" rms="3.9682668447494507e-01" purity="5.8155769109725952e-01" nType="-99"/>
          <Node pos="r" depth="2" NCoef="0" IVar="-1" Cut="0.0000000000000000e+00" cType="1" res="4.9811873584985733e-02" rms="1.5149454772472382e-01" purity="9.6556371450424194e-01" nType="-99"/>
        </Node>
      </Node>
    </BinaryTree>
    <BinaryTree type="DecisionTree" boostWeight="1.0000000000000000e+00" itree="9">
      <Node pos="s" depth="0" NCoef="0" IVar="2" Cut="3.9975497126579285e-01" cType="1" res="3.6709554493427277e-02" rms="2.6811778545379639e-01" purity="4.9960950016975403e-01" nType="0">
        <Node pos="l" depth="1" NCoef="0" IVar="1" Cut="2.4073176383972168e+00" cType="1" res="-1.2452952563762665e-01" rms="2.3759368062019348e-01" purity="1.1714784801006317e-01" nType="0">
          <Node pos="l" depth="2" NCoef="0" IVar="-1" Cut="0.0000000000000000e+00" cType="1" res="-6.4895711839199066e-02" rms="1.5855026245117188e-01" purity="3.4198384732007980e-02" nType="-99"/>
          <Node pos="r" depth="2" NCoef="0" IVar="-1" Cut="0.0000000000000000e+00" cType="1" res="2.9325742274522781e-02" rms="3.9838546514511108e-01" purity="6.1504817008972168e-01" nType="-99"/>
        </Node>
        <Node pos="r" depth="1" NCoef="0" IVar="2" Cut="5.1406723260879517e-01" cType="1" res="2.3901534080505371e-01" rms="1.3307090103626251e-01" purity="9.7948205471038818e-01" nType="0">
          <Node pos="l" depth="2" NCoef="0" IVar="-1" Cut="0.0000000000000000e+00" cType="1" res="2.8248446062207222e-02" rms="3.3754983544349670e-01" purity="8.4997463226318359e-01" nType="-99"/>
          <Node pos="r" depth="2" NCoef="0" IVar="-1" Cut="0.0000000000000000e+00" cType="1" res="5.0833344459533691e-02" rms="7.6251104474067688e-02" purity="9.9388754367828369e-01" nType="-99"/>
        </Node>
      </Node>
    </BinaryTree>
    <BinaryTree type="DecisionTree" boostWeight="1.0000000000000000e+00" itree="10">
      <Node pos="s" depth="0" NCoef="0" IVar="2" Cut="3.9975506067276001e-01" cType="1" res="3.4101840108633041e-02" rms="2.5516229867935181e-01" purity="4.9495795369148254e-01" nType="0">
        <Node pos="l" depth="1" NCoef="0" IVar="1" Cut="3.1274662017822266e+00" cType="1" res="-1.1016979813575745e-01" rms="2.3185580968856812e-01" purity="1.1960756033658981e-01" nType="0">
          <Node pos="l" depth="2" NCoef="0" IVar="-1" Cut="0.0000000000000000e+00" cType="1" res="-5.6120552122592926e-02" rms="1.8611070513725281e-01" purity="5.5501721799373627e-02" nType="-99"/>
          <Node pos="r" depth="2" NCoef="0" IVar="-1" Cut="0.0000000000000000e+00" cType="1" res="4.2426329106092453e-02" rms="3.5267469286918640e-01" purity="7.8818756341934204e-01" nType="-99"/>
        </Node>
        <Node pos="r" depth="1" NCoef="0" IVar="7" Cut="5.9903059005737305e+00" cType="1" res="2.2000625729560852e-01" rms="1.3547244668006897e-01" purity="9.7862392663955688e-01" nType="0">
          <Node pos="l" depth="2" NCoef="0" IVar="-1" Cut="0.0000000000000000e+00" cType="1" res="2.0072966814041138e-02" rms="3.4779480099678040e-01" purity="8.3493089675903320e-01" nType="-99"/>
          <Node pos="r" depth="2" NCoef="0" IVar="-1" Cut="0.0000000000000000e+00" cType="1" res="4.8944324254989624e-02" rms="9.5313064754009247e-02" purity="9.8969280719757080e-01" nType="-99"/>
        </Node>
      </Node>
    </BinaryTree>
    <BinaryTree type="DecisionTree" boostWeight="1.0000000000000000e+00" itree="11">
      <Node pos="s" depth="0" NCoef="0" IVar="2" Cut="2.2845827043056488e-01" cType="1" res="3.7778083235025406e-02" rms="2.4390035867691040e-01" purity="5.0396955013275146e-01" nType="0">
        <Node pos="l" depth="1" NCoef="0" IVar="4" Cut="8.1685882568359375e+02" cType="1" res="-1.2404276430606842e-01" rms="1.7642001807689667e-01" purity="5.5579748004674911e-02" nType="0">
          <Node pos="l" depth="2" NCoef="0" IVar="-1" Cut="0.0000000000000000e+00" cType="1" res="-6.1215318739414215e-02" rms="1.4139595627784729e-01" purity="3.2572939991950989e-02" nType="-99"/>
          <Node pos="r" depth="2" NCoef="0" IVar="-1" Cut="0.0000000000000000e+00" cType="1" res="3.6623477935791016e-02" rms="3.7987208366394043e-01" purity="4.4218116998672485e-01" nType="-99"/>
        </Node>
        <Node pos="r" depth="1" NCoef="0" IVar="5" Cut="1.4200211524963379e+01" cType="1" res="1.7832857370376587e-01" rms="2.0401990413665771e-01" purity="8.9342129230499268e-01" nType="0">
          <Node pos="l" depth="2" NCoef="0" IVar="-1" Cut="0.0000000000000000e+00" cType="1" res="4.4836699962615967e-02" rms="1.7051389813423157e-01" purity="9.3908357620239258e-01" nType="-99"/>
          <Node pos="r" depth="2" NCoef="0" IVar="-1" Cut="0.0000000000000000e+00" cType="1" res="-2.7270931750535965e-02" rms="3.3065763115882874e-01" purity="3.4170621633529663e-01" nType="-99"/>
        </Node>
      </Node>
    </BinaryTree>
    <BinaryTree type="DecisionTree" boostWeight="1.0000000000000000e+00" itree="12">
      <Node pos="s" depth="0" NCoef="0" IVar="2" Cut="3.5692614316940308e-01" cType="1" res="3.7061963230371475e-02" rms="2.3331475257873535e-01" purity="5.0169432163238525e-01" nType="0">
        <Node pos="l" depth="1" NCoef="0" IVar="8" Cut="2.6914911270141602e+01" cType="1" res="-8.9481666684150696e-02" rms="2.1461240947246552e-01" purity="1.0370237380266190e-01" nType="0">
          <Node pos="l" depth="2" NCoef="0" IVar="-1" Cut="0.0000000000000000e+00" cType="1" res="3.1439047306776047e-02" rms="3.8918203115463257e-01" purity="6.3354420661926270e-01" nType="-99"/>
          <Node pos="r" depth="2" NCoef="0" IVar="-1" Cut="0.0000000000000000e+00" cType="1" res="-5.7355049997568130e-02" rms="1.5245541930198669e-01" purity="3.4040570259094238e-02" nType="-99"/>
        </Node>
        <Node pos="r" depth="1" NCoef="0" IVar="1" Cut="1.7387856245040894e+00" cType="1" res="1.8615536391735077e-01" rms="1.5234895050525665e-01" purity="9.7060757875442505e-01" nType="0">
          <Node pos="l" depth="2" NCoef="0" IVar="-1" Cut="0.0000000000000000e+00" cType="1" res="1.4140384271740913e-02" rms="3.6266639828681946e-01" purity="7.9722040891647339e-01" nType="-99"/>
          <Node pos="r" depth="2" NCoef="0" IVar="-1" Cut="0.0000000000000000e+00" cType="1" res="4.6041216701269150e-02" rms="1.1293454468250275e-01" purity="9.8516821861267090e-01" nType="-99"/>
        </Node>
      </Node>
    </BinaryTree>
    <BinaryTree type="DecisionTree" boostWeight="1.0000000000000000e+00" itree="13">
      <Node pos="s" depth="0" NCoef="0" IVar="2" Cut="4.4257694482803345e-01" cType="1" res="3.7220802158117294e-02" rms="2.2536227107048035e-01" purity="5.0621467828750610e-01" nType="0">
        <Node pos="l" depth="1" NCoef="0" IVar="1" Cut="2.4598631858825684e+00" cType="1" res="-7.2093881666660309e-02" rms="2.2880862653255463e-01" purity="1.3807608187198639e-01" nType="0">
          <Node pos="l" depth="2" NCoef="0" IVar="-1" Cut="0.0000000000000000e+00" cType="1" res="-5.5005468428134918e-02" rms="1.7054991424083710e-01" purity="4.1992846876382828e-02" nType="-99"/>
          <Node pos="r" depth="2" NCoef="0" IVar="-1" Cut="0.0000000000000000e+00" cType="1" res="3.0831973999738693e-02" rms="3.5421568155288696e-01" purity="6.7248922586441040e-01" nType="-99"/>
        </Node>
        <Node pos="r" depth="1" NCoef="0" IVar="2" Cut="5.7514417171478271e-01" cType="1" res="1.7942665517330170e-01" rms="1.1394850164651871e-01" purity="9.8512071371078491e-01" nType="0">
          <Node pos="l" depth="2" NCoef="0" IVar="-1" Cut="0.0000000000000000e+00" cType="1" res="2.8396895155310631e-02" rms="2.7183231711387634e-01" purity="9.0755444765090942e-01" nType="-99"/>
          <Node pos="r" depth="2" NCoef="0" IVar="-1" Cut="0.0000000000000000e+00" cType="1" res="4.7083247452974319e-02" rms="5.8088630437850952e-02" purity="9.9648481607437134e-01" nType="-99"/>
        </Node>
      </Node>
    </BinaryTree>
    <BinaryTree type="DecisionTree" boostWeight="1.0000000000000000e+00" itree="14">
      <Node pos="s" depth="0" NCoef="0" IVar="1" Cut="2.0827853679656982e+00" cType="1" res="3.7301503121852875e-02" rms="2.1794852614402771e-01" purity="5.0474196672439575e-01" nType="0">
        <Node pos="l" depth="1" NCoef="0" IVar="2" Cut="5.7104295492172241e-01" cType="1" res="-7.9124398529529572e-02" rms="1.7575284838676453e-01" purity="1.3611142337322235e-01" nType="0">
          <Node pos="l" depth="2" NCoef="0" IVar="-1" Cut="0.0000000000000000e+00" cType="1" res="-5.5937301367521286e-02" rms="1.5688647329807281e-01" purity="4.6307943761348724e-02" nType="-99"/>
          <Node pos="r" depth="2" NCoef="0" IVar="-1" Cut="0.0000000000000000e+00" cType="1" res="4.3416660279035568e-02" rms="1.3714709877967834e-01" purity="9.7946202754974365e-01" nType="-99"/>
        </Node>
        <Node pos="r" depth="1" NCoef="0" IVar="5" Cut="1.4148823738098145e+01" cType="1" res="1.4970216155052185e-01" rms="1.9447222352027893e-01" purity="8.6062759160995483e-01" nType="0">
          <Node pos="l" depth="2" NCoef="0" IVar="-1" Cut="0.0000000000000000e+00" cType="1" res="4.5222405344247818e-02" rms="1.6409353911876678e-01" purity="9.3078893423080444e-01" nType="-99"/>
          <Node pos="r" depth="2" NCoef="0" IVar="-1" Cut="0.0000000000000000e+00" cType="1" res="-2.5376074016094208e-02" rms="2.6917064189910889e-01" purity="2.6651537418365479e-01" nType="-99"/>
        </Node>
      </Node>
    </BinaryTree>
    <BinaryTree type="DecisionTree" boostWeight="1.0000000000000000e+00" itree="15">
      <Node pos="s" depth="0" NCoef="0" IVar="2" Cut="3.9972448348999023e-01" cType="1" res="3.2093025743961334e-02" rms="2.0636138319969177e-01" purity="5.0028765201568604e-01" nType="0">
        <Node pos="l" depth="1" NCoef="0" IVar="4" Cut="9.1334387207031250e+02" cType="1" res="-6.5707907080650330e-02" rms="2.0560562610626221e-01" purity="1.0888072103261948e-01" nType="0">
          <Node pos="l" depth="2" NCoef="0" IVar="-1" Cut="0.0000000000000000e+00" cType="1" res="-4.3182060122489929e-02" rms="1.7920327186584473e-01" purity="7.2609551250934601e-02" nType="-99"/>
          <Node pos="r" depth="2" NCoef="0" IVar="-1" Cut="0.0000000000000000e+00" cType="1" res="5.7696495205163956e-02" rms="3.2150012254714966e-01" purity="7.1470659971237183e-01" nType="-99"/>
        </Node>
        <Node pos="r" depth="1" NCoef="0" IVar="7" Cut="6.2531781196594238e+00" cType="1" res="1.5170170366764069e-01" rms="1.3023713231086731e-01" purity="9.7897076606750488e-01" nType="0">
          <Node pos="l" depth="2" NCoef="0" IVar="-1" Cut="0.0000000000000000e+00" cType="1" res="2.0105903968214989e-02" rms="2.9222080111503601e-01" purity="8.7870544195175171e-01" nType="-99"/>
          <Node pos="r" depth="2" NCoef="0" IVar="-1" Cut="0.0000000000000000e+00" cType="1" res="4.4272262603044510e-02" rms="9.2239238321781158e-02" purity="9.9030447006225586e-01" nType="-99"/>
        </Node>
      </Node>
    </BinaryTree>
    <BinaryTree type="DecisionTree" boostWeight="1.0000000000000000e+00" itree="16">
      <Node pos="s" depth="0" NCoef="0" IVar="1" Cut="2.1247656345367432e+00" cType="1" res="3.3285424113273621e-02" rms="2.0129859447479248e-01" purity="4.9987366795539856e-01" nType="0">
        <Node pos="l" depth="1" NCoef="0" IVar="2" Cut="5.7099670171737671e-01" cType="1" res="-6.4929895102977753e-02" rms="1.6698826849460602e-01" purity="1.3771866261959076e-01" nType="0">
          <Node pos="l" depth="2" NCoef="0" IVar="-1" Cut="0.0000000000000000e+00" cType="1" res="-5.3441271185874939e-02" rms="1.5261009335517883e-01" purity="4.3339084833860397e-02" nType="-99"/>
          <Node pos="r" depth="2" NCoef="0" IVar="-1" Cut="0.0000000000000000e+00" cType="1" res="4.2277406901121140e-02" rms="1.2662577629089355e-01" purity="9.8251497745513916e-01" nType="-99"/>
        </Node>
        <Node pos="r" depth="1" NCoef="0" IVar="5" Cut="1.9040029525756836e+01" cType="1" res="1.3501264154911041e-01" rms="1.8239898979663849e-01" purity="8.7497824430465698e-01" nType="0">
          <Node pos="l" depth="2" NCoef="0" IVar="-1" Cut="0.0000000000000000e+00" cType="1" res="4.3140079826116562e-02" rms="1.6166339814662933e-01" purity="9.2878061532974243e-01" nType="-99"/>
          <Node pos="r" depth="2" NCoef="0" IVar="-1" Cut="0.0000000000000000e+00" cType="1" res="-2.8194375336170197e-02" rms="2.5880613923072815e-01" purity="2.3755903542041779e-01" nType="-99"/>
        </Node>
      </Node>
    </BinaryTree>
    <BinaryTree type="DecisionTree" boostWeight="1.0000000000000000e+00" itree="17">
      <Node pos="s" depth="0" NCoef="0" IVar="2" Cut="2.2846718132495880e-01" cType="1" res="3.4455385059118271e-02" rms="1.9607993960380554e-01" purity="5.0835460424423218e-01" nType="0">
        <Node pos="l" depth="1" NCoef="0" IVar="4" Cut="8.1684423828125000e+02" cType="1" res="-6.5118975937366486e-02" rms="1.6490954160690308e-01" purity="5.6635566055774689e-02" nType="0">
          <Node pos="l" depth="2" NCoef="0" IVar="-1" Cut="0.0000000000000000e+00" cType="1" res="-4.9092616885900497e-02" rms="1.4302431046962738e-01" purity="3.4730471670627594e-02" nType="-99"/>
          <Node pos="r" depth="2" NCoef="0" IVar="-1" Cut="0.0000000000000000e+00" cType="1" res="3.3767696470022202e-02" rms="3.3188265562057495e-01" purity="4.3672990798950195e-01" nType="-99"/>
        </Node>
        <Node pos="r" depth="1" NCoef="0" IVar="7" Cut="5.7669177055358887e+00" cType="1" res="1.2035836279392242e-01" rms="1.7950366437435150e-01" purity="8.9805328845977783e-01" nType="0">
          <Node pos="l" depth="2" NCoef="0" IVar="-1" Cut="0.0000000000000000e+00" cType="1" res="-1.5729533508419991e-02" rms="2.9863440990447998e-01" purity="4.3778064846992493e-01" nType="-99"/>
          <Node pos="r" depth="2" NCoef="0" IVar="-1" Cut="0.0000000000000000e+00" cType="1" res="4.0783338248729706e-02" rms="1.5391580760478973e-01" purity="9.4262635707855225e-01" nType="-99"/>
        </Node>
      </Node>
    </BinaryTree>
    <BinaryTree type="DecisionTree" boostWeight="1.0000000000000000e+00" itree="18">
      <Node pos="s" depth="0" NCoef="0" IVar="6" Cut="4.7290693359375000e+03" cType="1" res="3.1471863389015198e-02" rms="1.9431287050247192e-01" purity="4.9778795242309570e-01" nType="0">
        <Node pos="l" depth="1" NCoef="0" IVar="8" Cut="2.5153512954711914e+01" cType="1" res="-5.2331786602735519e-02" rms="1.6391405463218689e-01" purity="1.4976431429386139e-01" nType="0">
          <Node pos="l" depth="2" NCoef="0" IVar="-1" Cut="0.0000000000000000e+00" cType="1" res="3.4208524972200394e-02" rms="2.4624383449554443e-01" purity="7.9695969820022583e-01" nType="-99"/>
          <Node pos="r" depth="2" NCoef="0" IVar="-1" Cut="0.0000000000000000e+00" cType="1" res="-5.2779074758291245e-02" rms="1.3097040355205536e-01" purity="5.7685375213623047e-02" nType="-99"/>
        </Node>
        <Node pos="r" depth="1" NCoef="0" IVar="5" Cut="1.4218266487121582e+01" cType="1" res="1.1606995016336441e-01" rms="1.8575233221054077e-01" purity="8.4911078214645386e-01" nType="0">
          <Node pos="l" depth="2" NCoef="0" IVar="-1" Cut="0.0000000000000000e+00" cType="1" res="4.1971933096647263e-02" rms="1.7013299465179443e-01" purity="9.0910941362380981e-01" nType="-99"/>
          <Node pos="r" depth="2" NCoef="0" IVar="-1" Cut="0.0000000000000000e+00" cType="1" res="-2.1840600296854973e-02" rms="2.3971289396286011e-01" purity="2.5328817963600159e-01" nType="-99"/>
        </Node>
      </Node>
    </BinaryTree>
    <BinaryTree type="DecisionTree" boostWeight="1.0000000000000000e+00" itree="19">
      <Node pos="s" depth="0" NCoef="0" IVar="1" Cut="2.1123566627502441e+00" cType="1" res="2.8443943709135056e-02" rms="1.8516226112842560e-01" purity="5.0143092870712280e-01" nType="0">
        <Node pos="l" depth="1" NCoef="0" IVar="8" Cut="2.5051925659179688e+01" cType="1" res="-4.9280636012554169e-02" rms="1.6111885011196136e-01" purity="1.3912901282310486e-01" nType="0">
          <Node pos="l" depth="2" NCoef="0" IVar="-1" Cut="0.0000000000000000e+00" cType="1" res="3.2795816659927368e-02" rms="2.5540238618850708e-01" purity="7.7416551113128662e-01" nType="-99"/>
          <Node pos="r" depth="2" NCoef="0" IVar="-1" Cut="0.0000000000000000e+00" cType="1" res="-5.4814767092466354e-02" rms="1.2748517096042633e-01" purity="5.1310453563928604e-02" nType="-99"/>
        </Node>
        <Node pos="r" depth="1" NCoef="0" IVar="5" Cut="1.8980495452880859e+01" cType="1" res="1.0821719467639923e-01" rms="1.7397178709506989e-01" purity="8.7328249216079712e-01" nType="0">
          <Node pos="l" depth="2" NCoef="0" IVar="-1" Cut="0.0000000000000000e+00" cType="1" res="3.9980124682188034e-02" rms="1.5876226127147675e-01" purity="9.2463409900665283e-01" nType="-99"/>
          <Node pos="r" depth="2" NCoef="0" IVar="-1" Cut="0.0000000000000000e+00" cType="1" res="-2.9831647872924805e-02" rms="2.3939403891563416e-01" purity="2.1310512721538544e-01" nType="-99"/>
        </Node>
      </Node>
    </BinaryTree>
    <BinaryTree type="DecisionTree" boostWeight="1.0000000000000000e+00" itree="20">
      <Node pos="s" depth="0" NCoef="0" IVar="2" Cut="2.2846718132495880e-01" cType="1" res="2.8582843020558357e-02" rms="1.8349221348762512e-01" purity="5.0192046165466309e-01" nType="0">
        <Node pos="l" depth="1" NCoef="0" IVar="4" Cut="7.2475195312500000e+02" cType="1" res="-5.1322426646947861e-02" rms="1.5830153226852417e-01" purity="5.3773690015077591e-02" nType="0">
          <Node pos="l" depth="2" NCoef="0" IVar="-1" Cut="0.0000000000000000e+00" cType="1" res="-4.9450803548097610e-02" rms="1.2787683308124542e-01" purity="2.7997571974992752e-02" nType="-99"/>
          <Node pos="r" depth="2" NCoef="0" IVar="-1" Cut="0.0000000000000000e+00" cType="1" res="2.1479053422808647e-02" rms="3.0941042304039001e-01" purity="3.0081826448440552e-01" nType="-99"/>
        </Node>
        <Node pos="r" depth="1" NCoef="0" IVar="5" Cut="9.5200586318969727e+00" cType="1" res="9.8249167203903198e-02" rms="1.7537397146224976e-01" purity="8.9264231920242310e-01" nType="0">
          <Node pos="l" depth="2" NCoef="0" IVar="-1" Cut="0.0000000000000000e+00" cType="1" res="3.9764333516359329e-02" rms="1.4618183672428131e-01" purity="9.4784867763519287e-01" nType="-99"/>
          <Node pos="r" depth="2" NCoef="0" IVar="-1" Cut="0.0000000000000000e+00" cType="1" res="-1.0512092150747776e-02" rms="2.8535661101341248e-01" purity="4.8296412825584412e-01" nType="-99"/>
        </Node>
      </Node>
    </BinaryTree>
    <BinaryTree type="DecisionTree" boostWeight="1.0000000000000000e+00" itree="21">
      <Node pos="s" depth="0" NCoef="0" IVar="8" Cut="2.4910814285278320e+01" cType="1" res="2.6603002101182938e-02" rms="1.7647601664066315e-01" purity="5.0240230560302734e-01" nType="0">
        <Node pos="l" depth="1" NCoef="0" IVar="8" Cut="1.6066806793212891e+01" cType="1" res="1.1689198762178421e-01" rms="1.5283924341201782e-01" purity="9.4743770360946655e-01" nType="0">
          <Node pos="l" depth="2" NCoef="0" IVar="-1" Cut="0.0000000000000000e+00" cType="1" res="4.6116366982460022e-02" rms="1.3518470525741577e-01" purity="9.7833263874053955e-01" nType="-99"/>
          <Node pos="r" depth="2" NCoef="0" IVar="-1" Cut="0.0000000000000000e+00" cType="1" res="3.2388608902692795e-02" rms="1.7281639575958252e-01" purity="9.0246725082397461e-01" nType="-99"/>
        </Node>
        <Node pos="r" depth="1" NCoef="0" IVar="2" Cut="4.8535200953483582e-01" cType="1" res="-2.3959457874298096e-02" rms="1.6846677660942078e-01" purity="2.5317937135696411e-01" nType="0">
          <Node pos="l" depth="2" NCoef="0" IVar="-1" Cut="0.0000000000000000e+00" cType="1" res="-4.3065868318080902e-02" rms="1.5780909359455109e-01" purity="5.8436635881662369e-02" nType="-99"/>
          <Node pos="r" depth="2" NCoef="0" IVar="-1" Cut="0.0000000000000000e+00" cType="1" res="3.7035401910543442e-02" rms="1.4314451813697815e-01" purity="9.7524434328079224e-01" nType="-99"/>
        </Node>
      </Node>
    </BinaryTree>
    <BinaryTree type="DecisionTree" boostWeight="1.0000000000000000e+00" itree="22">
      <Node pos="s" depth="0" NCoef="0" IVar="6" Cut="4.3840483398437500e+03" cType="1" res="2.7017237618565559e-02" rms="1.7513094842433929e-01" purity="5.0417441129684448e-01" nType="0">
        <Node pos="l" depth="1" NCoef="0" IVar="8" Cut="2.4819505691528320e+01" cType="1" res="-3.9757926017045975e-02" rms="1.4674840867519379e-01" purity="1.3309603929519653e-01" nType="0">
          <Node pos="l" depth="2" NCoef="0" IVar="-1" Cut="0.0000000000000000e+00" cType="1" res="2.6709847152233124e-02" rms="2.4902041256427765e-01" purity="7.9681307077407837e-01" nType="-99"/>
          <Node pos="r" depth="2" NCoef="0" IVar="-1" Cut="0.0000000000000000e+00" cType="1" res="-5.0791874527931213e-02" rms="1.1767423897981644e-01" purity="4.4876996427774429e-02" nType="-99"/>
        </Node>
        <Node pos="r" depth="1" NCoef="0" IVar="5" Cut="9.4911098480224609e+00" cType="1" res="8.6276412010192871e-02" rms="1.7694523930549622e-01" purity="8.3348542451858521e-01" nType="0">
          <Node pos="l" depth="2" NCoef="0" IVar="-1" Cut="0.0000000000000000e+00" cType="1" res="4.0058676153421402e-02" rms="1.5706540644168854e-01" purity="9.1746509075164795e-01" nType="-99"/>
          <Node pos="r" depth="2" NCoef="0" IVar="-1" Cut="0.0000000000000000e+00" cType="1" res="-9.4637796282768250e-03" rms="2.3599539697170258e-01" purity="3.4998241066932678e-01" nType="-99"/>
        </Node>
      </Node>
    </BinaryTree>
    <BinaryTree type="DecisionTree" boostWeight="1.0000000000000000e+00" itree="23">
      <Node pos="s" depth="0" NCoef="0" IVar="2" Cut="2.2846858203411102e-01" cType="1" res="2.3841332644224167e-02" rms="1.7159612476825714e-01" purity="5.0046736001968384e-01" nType="0">
        <Node pos="l" depth="1" NCoef="0" IVar="1" Cut="3.0263435840606689e+00" cType="1" res="-3.8770239800214767e-02" rms="1.5756949782371521e-01" purity="5.4778780788183212e-02" nType="0">
          <Node pos="l" depth="2" NCoef="0" IVar="-1" Cut="0.0000000000000000e+00" cType="1" res="-4.5307498425245285e-02" rms="1.2425003945827484e-01" purity="2.3360185325145721e-02" nType="-99"/>
          <Node pos="r" depth="2" NCoef="0" IVar="-1" Cut="0.0000000000000000e+00" cType="1" res="1.7126085236668587e-02" rms="4.0234637260437012e-01" purity="5.5921614170074463e-01" nType="-99"/>
        </Node>
        <Node pos="r" depth="1" NCoef="0" IVar="5" Cut="1.9040029525756836e+01" cType="1" res="7.9241581261157990e-02" rms="1.6429442167282104e-01" purity="8.9482343196868896e-01" nType="0">
          <Node pos="l" depth="2" NCoef="0" IVar="-1" Cut="0.0000000000000000e+00" cType="1" res="3.5564176738262177e-02" rms="1.4746683835983276e-01" purity="9.3272662162780762e-01" nType="-99"/>
          <Node pos="r" depth="2" NCoef="0" IVar="-1" Cut="0.0000000000000000e+00" cType="1" res="-3.1555488705635071e-02" rms="2.9088887572288513e-01" purity="2.6189127564430237e-01" nType="-99"/>
        </Node>
      </Node>
    </BinaryTree>
    <BinaryTree type="DecisionTree" boostWeight="1.0000000000000000e+00" itree="24">
      <Node pos="s" depth="0" NCoef="0" IVar="1" Cut="2.0827853679656982e+00" cType="1" res="2.3904666304588318e-02" rms="1.7234562337398529e-01" purity="5.0121277570724487e-01" nType="0">
        <Node pos="l" depth="1" NCoef="0" IVar="2" Cut="5.7104295492172241e-01" cType="1" res="-3.0975282192230225e-02" rms="1.5138588845729828e-01" purity="1.4063175022602081e-01" nType="0">
          <Node pos="l" depth="2" NCoef="0" IVar="-1" Cut="0.0000000000000000e+00" cType="1" res="-4.1695516556501389e-02" rms="1.4884172379970551e-01" purity="4.6605721116065979e-02" nType="-99"/>
          <Node pos="r" depth="2" NCoef="0" IVar="-1" Cut="0.0000000000000000e+00" cType="1" res="3.9489358663558960e-02" rms="1.0332888364791870e-01" purity="9.8816722631454468e-01" nType="-99"/>
        </Node>
        <Node pos="r" depth="1" NCoef="0" IVar="5" Cut="9.4902477264404297e+00" cType="1" res="7.8332625329494476e-02" rms="1.7459397017955780e-01" purity="8.5882401466369629e-01" nType="0">
          <Node pos="l" depth="2" NCoef="0" IVar="-1" Cut="0.0000000000000000e+00" cType="1" res="3.9629548788070679e-02" rms="1.4960181713104248e-01" purity="9.4341027736663818e-01" nType="-99"/>
          <Node pos="r" depth="2" NCoef="0" IVar="-1" Cut="0.0000000000000000e+00" cType="1" res="-8.2573331892490387e-03" rms="2.5704148411750793e-01" purity="3.6718982458114624e-01" nType="-99"/>
        </Node>
      </Node>
    </BinaryTree>
    <BinaryTree type="DecisionTree" boostWeight="1.0000000000000000e+00" itree="25">
      <Node pos="s" depth="0" NCoef="0" IVar="1" Cut="2.4402067661285400e+00" cType="1" res="2.1285839378833771e-02" rms="1.6618852317333221e-01" purity="4.9482673406600952e-01" nType="0">
        <Node pos="l" depth="1" NCoef="0" IVar="2" Cut="5.2817958593368530e-01" cType="1" res="-2.3146919906139374e-02" rms="1.6139410436153412e-01" purity="1.8521723151206970e-01" nType="0">
          <Node pos="l" depth="2" NCoef="0" IVar="-1" Cut="0.0000000000000000e+00" cType="1" res="-3.7649750709533691e-02" rms="1.6018390655517578e-01" purity="5.2662119269371033e-02" nType="-99"/>
          <Node pos="r" depth="2" NCoef="0" IVar="-1" Cut="0.0000000000000000e+00" cType="1" res="3.6908317357301712e-02" rms="1.2060424685478210e-01" purity="9.8307019472122192e-01" nType="-99"/>
        </Node>
        <Node pos="r" depth="1" NCoef="0" IVar="5" Cut="1.4280137062072754e+01" cType="1" res="8.4258854389190674e-02" rms="1.5192392468452454e-01" purity="9.3362551927566528e-01" nType="0">
          <Node pos="l" depth="2" NCoef="0" IVar="-1" Cut="0.0000000000000000e+00" cType="1" res="3.9557032287120819e-02" rms="1.2894637882709503e-01" purity="9.7044968605041504e-01" nType="-99"/>
          <Node pos="r" depth="2" NCoef="0" IVar="-1" Cut="0.0000000000000000e+00" cType="1" res="-2.3669798392802477e-03" rms="3.1966716051101685e-01" purity="4.2988380789756775e-01" nType="-99"/>
        </Node>
      </Node>
    </BinaryTree>
    <BinaryTree type="DecisionTree" boostWeight="1.0000000000000000e+00" itree="26">
      <Node pos="s" depth="0" NCoef="0" IVar="2" Cut="4.8539888858795166e-01" cType="1" res="2.0945627242326736e-02" rms="1.6364796459674835e-01" purity="5.0024312734603882e-01" nType="0">
        <Node pos="l" depth="1" NCoef="0" IVar="4" Cut="8.0088110351562500e+02" cType="1" res="-1.8928376957774162e-02" rms="1.9133044779300690e-01" purity="1.5742959082126617e-01" nType="0">
          <Node pos="l" depth="2" NCoef="0" IVar="-1" Cut="0.0000000000000000e+00" cType="1" res="-2.8611831367015839e-02" rms="1.7493647336959839e-01" purity="9.8655492067337036e-02" nType="-99"/>
          <Node pos="r" depth="2" NCoef="0" IVar="-1" Cut="0.0000000000000000e+00" cType="1" res="4.2123392224311829e-02" rms="2.5402453541755676e-01" purity="6.8257528543472290e-01" nType="-99"/>
        </Node>
        <Node pos="r" depth="1" NCoef="0" IVar="2" Cut="6.0807377099990845e-01" cType="1" res="7.8156158328056335e-02" rms="8.4422975778579712e-02" purity="9.9210613965988159e-01" nType="0">
          <Node pos="l" depth="2" NCoef="0" IVar="-1" Cut="0.0000000000000000e+00" cType="1" res="2.6388583704829216e-02" rms="1.8224823474884033e-01" purity="9.5621174573898315e-01" nType="-99"/>
          <Node pos="r" depth="2" NCoef="0" IVar="-1" Cut="0.0000000000000000e+00" cType="1" res="4.1352678090333939e-02" rms="5.8143835514783859e-02" purity="9.9717783927917480e-01" nType="-99"/>
        </Node>
      </Node>
    </BinaryTree>
    <BinaryTree type="DecisionTree" boostWeight="1.0000000000000000e+00" itree="27">
      <Node pos="s" depth="0" NCoef="0" IVar="7" Cut="6.7036318778991699e+00" cType="1" res="2.0879255607724190e-02" rms="1.6187672317028046e-01" purity="5.0108903646469116e-01" nType="0">
        <Node pos="l" depth="1" NCoef="0" IVar="6" Cut="6.6866137695312500e+03" cType="1" res="-2.9563616961240768e-02" rms="1.4216901361942291e-01" purity="1.6955123841762543e-01" nType="0">
          <Node pos="l" depth="2" NCoef="0" IVar="-1" Cut="0.0000000000000000e+00" cType="1" res="-4.6882897615432739e-02" rms="1.2013747543096542e-01" purity="6.7143008112907410e-02" nType="-99"/>
          <Node pos="r" depth="2" NCoef="0" IVar="-1" Cut="0.0000000000000000e+00" cType="1" res="3.1779382377862930e-02" rms="2.0991699397563934e-01" purity="7.9658412933349609e-01" nType="-99"/>
        </Node>
        <Node pos="r" depth="1" NCoef="0" IVar="5" Cut="2.3688539505004883e+01" cType="1" res="6.1527986079454422e-02" rms="1.6531765460968018e-01" purity="7.6825451850891113e-01" nType="0">
          <Node pos="l" depth="2" NCoef="0" IVar="-1" Cut="0.0000000000000000e+00" cType="1" res="3.7186402827501297e-02" rms="1.5959385037422180e-01" purity="8.4632444381713867e-01" nType="-99"/>
          <Node pos="r" depth="2" NCoef="0" IVar="-1" Cut="0.0000000000000000e+00" cType="1" res="-3.6683894693851471e-02" rms="1.7082217335700989e-01" purity="9.0682514011859894e-02" nType="-99"/>
        </Node>
      </Node>
    </BinaryTree>
    <BinaryTree type="DecisionTree" boostWeight="1.0000000000000000e+00" itree="28">
      <Node pos="s" depth="0" NCoef="0" IVar="8" Cut="4.9044879913330078e+01" cType="1" res="1.8412871286273003e-02" rms="1.6004955768585205e-01" purity="5.0370490550994873e-01" nType="0">
        <Node pos="l" depth="1" NCoef="0" IVar="2" Cut="1.4282323420047760e-01" cType="1" res="5.5327732115983963e-02" rms="1.6645738482475281e-01" purity="7.7638125419616699e-01" nType="0">
          <Node pos="l" depth="2" NCoef="0" IVar="-1" Cut="0.0000000000000000e+00" cType="1" res="-2.4023840203881264e-02" rms="2.0260269939899445e-01" purity="9.4162091612815857e-02" nType="-99"/>
          <Node pos="r" depth="2" NCoef="0" IVar="-1" Cut="0.0000000000000000e+00" cType="1" res="3.5419136285781860e-02" rms="1.5484248101711273e-01" purity="8.8989937305450439e-01" nType="-99"/>
        </Node>
        <Node pos="r" depth="1" NCoef="0" IVar="2" Cut="6.1375379562377930e-01" cType="1" res="-3.1257499009370804e-02" rms="1.3601472973823547e-01" purity="1.3680827617645264e-01" nType="0">
          <Node pos="l" depth="2" NCoef="0" IVar="-1" Cut="0.0000000000000000e+00" cType="1" res="-4.7579102218151093e-02" rms="1.3203339278697968e-01" purity="4.5403014868497849e-02" nType="-99"/>
          <Node pos="r" depth="2" NCoef="0" IVar="-1" Cut="0.0000000000000000e+00" cType="1" res="3.9201702922582626e-02" rms="1.1749935150146484e-01" purity="9.8761278390884399e-01" nType="-99"/>
        </Node>
      </Node>
    </BinaryTree>
    <BinaryTree type="DecisionTree" boostWeight="1.0000000000000000e+00" itree="29">
      <Node pos="s" depth="0" NCoef="0" IVar="1" Cut="2.1247515678405762e+00" cType="1" res="1.8623139709234238e-02" rms="1.5629398822784424e-01" purity="4.9784776568412781e-01" nType="0">
        <Node pos="l" depth="1" NCoef="0" IVar="8" Cut="2.5150524139404297e+01" cType="1" res="-2.1416151896119118e-02" rms="1.4454326033592224e-01" purity="1.4121109247207642e-01" nType="0">
          <Node pos="l" depth="2" NCoef="0" IVar="-1" Cut="0.0000000000000000e+00" cType="1" res="2.7457641437649727e-02" rms="2.6197564601898193e-01" purity="7.5006926059722900e-01" nType="-99"/>
          <Node pos="r" depth="2" NCoef="0" IVar="-1" Cut="0.0000000000000000e+00" cType="1" res="-4.6814050525426865e-02" rms="1.1056358367204666e-01" purity="5.0253920257091522e-02" nType="-99"/>
        </Node>
        <Node pos="r" depth="1" NCoef="0" IVar="5" Cut="2.3800741195678711e+01" cType="1" res="6.1146177351474762e-02" rms="1.5707117319107056e-01" purity="8.7660759687423706e-01" nType="0">
          <Node pos="l" depth="2" NCoef="0" IVar="-1" Cut="0.0000000000000000e+00" cType="1" res="3.5115286707878113e-02" rms="1.4934115111827850e-01" purity="9.2024856805801392e-01" nType="-99"/>
          <Node pos="r" depth="2" NCoef="0" IVar="-1" Cut="0.0000000000000000e+00" cType="1" res="-2.3269092664122581e-02" rms="2.2331234812736511e-01" purity="1.7559505999088287e-01" nType="-99"/>
        </Node>
      </Node>
    </BinaryTree>
    <BinaryTree type="DecisionTree" boostWeight="1.0000000000000000e+00" itree="30">
      <Node pos="s" depth="0" NCoef="0" IVar="8" Cut="4.8362159729003906e+01" cType="1" res="1.7632363364100456e-02" rms="1.5665356814861298e-01" purity="4.9229574203491211e-01" nType="0">
        <Node pos="l" depth="1" NCoef="0" IVar="7" Cut="5.8413133621215820e+00" cType="1" res="5.0212953239679337e-02" rms="1.6550631821155548e-01" purity="7.6784497499465942e-01" nType="0">
          <Node pos="l" depth="2" NCoef="0" IVar="-1" Cut="0.0000000000000000e+00" cType="1" res="-1.6608277335762978e-02" rms="1.8174168467521667e-01" purity="2.3576453328132629e-01" nType="-99"/>
          <Node pos="r" depth="2" NCoef="0" IVar="-1" Cut="0.0000000000000000e+00" cType="1" res="3.5602986812591553e-02" rms="1.5823476016521454e-01" purity="8.7109899520874023e-01" nType="-99"/>
        </Node>
        <Node pos="r" depth="1" NCoef="0" IVar="2" Cut="6.9937884807586670e-01" cType="1" res="-2.5104667991399765e-02" rms="1.3259118795394897e-01" purity="1.3084870576858521e-01" nType="0">
          <Node pos="l" depth="2" NCoef="0" IVar="-1" Cut="0.0000000000000000e+00" cType="1" res="-4.1135635226964951e-02" rms="1.3034608960151672e-01" purity="5.6187950074672699e-02" nType="-99"/>
          <Node pos="r" depth="2" NCoef="0" IVar="-1" Cut="0.0000000000000000e+00" cType="1" res="3.8149800151586533e-02" rms="1.1613072454929352e-01" purity="9.8770755529403687e-01" nType="-99"/>
        </Node>
      </Node>
    </BinaryTree>
    <BinaryTree type="DecisionTree" boostWeight="1.0000000000000000e+00" itree="31">
      <Node pos="s" depth="0" NCoef="0" IVar="2" Cut="2.2846032679080963e-01" cType="1" res="1.3798791915178299e-02" rms="1.4986103773117065e-01" purity="4.9109080433845520e-01" nType="0">
        <Node pos="l" depth="1" NCoef="0" IVar="4" Cut="7.5191412353515625e+02" cType="1" res="-2.3571981117129326e-02" rms="1.3636383414268494e-01" purity="4.8762407153844833e-02" nType="0">
          <Node pos="l" depth="2" NCoef="0" IVar="-1" Cut="0.0000000000000000e+00" cType="1" res="-4.0520615875720978e-02" rms="1.1840294301509857e-01" purity="2.6010347530245781e-02" nType="-99"/>
          <Node pos="r" depth="2" NCoef="0" IVar="-1" Cut="0.0000000000000000e+00" cType="1" res="2.1126827225089073e-02" rms="2.5981849431991577e-01" purity="3.1832188367843628e-01" nType="-99"/>
        </Node>
        <Node pos="r" depth="1" NCoef="0" IVar="7" Cut="6.1219706535339355e+00" cType="1" res="4.7251854091882706e-02" rms="1.5345126390457153e-01" purity="8.8704836368560791e-01" nType="0">
          <Node pos="l" depth="2" NCoef="0" IVar="-1" Cut="0.0000000000000000e+00" cType="1" res="-1.2353361584246159e-02" rms="2.3486314713954926e-01" purity="5.0215590000152588e-01" nType="-99"/>
          <Node pos="r" depth="2" NCoef="0" IVar="-1" Cut="0.0000000000000000e+00" cType="1" res="3.3835832029581070e-02" rms="1.3358700275421143e-01" purity="9.4523781538009644e-01" nType="-99"/>
        </Node>
      </Node>
    </BinaryTree>
    <BinaryTree type="DecisionTree" boostWeight="1.0000000000000000e+00" itree="32">
      <Node pos="s" depth="0" NCoef="0" IVar="5" Cut="4.7600779533386230e+00" cType="1" res="1.6943514347076416e-02" rms="1.5652342140674591e-01" purity="4.9724280834197998e-01" nType="0">
        <Node pos="l" depth="1" NCoef="0" IVar="2" Cut="1.4286932349205017e-01" cType="1" res="4.9997068941593170e-02" rms="1.5791741013526917e-01" purity="7.6817941665649414e-01" nType="0">
          <Node pos="l" depth="2" NCoef="0" IVar="-1" Cut="0.0000000000000000e+00" cType="1" res="-1.1750875972211361e-02" rms="1.9236503541469574e-01" purity="8.8957682251930237e-02" nType="-99"/>
          <Node pos="r" depth="2" NCoef="0" IVar="-1" Cut="0.0000000000000000e+00" cType="1" res="3.7508897483348846e-02" rms="1.4847353100776672e-01" purity="8.8566088676452637e-01" nType="-99"/>
        </Node>
        <Node pos="r" depth="1" NCoef="0" IVar="2" Cut="6.1369919776916504e-01" cType="1" res="-1.6885446384549141e-02" rms="1.4760895073413849e-01" purity="2.1995034813880920e-01" nType="0">
          <Node pos="l" depth="2" NCoef="0" IVar="-1" Cut="0.0000000000000000e+00" cType="1" res="-3.5375386476516724e-02" rms="1.4924916625022888e-01" purity="7.9937465488910675e-02" nType="-99"/>
          <Node pos="r" depth="2" NCoef="0" IVar="-1" Cut="0.0000000000000000e+00" cType="1" res="3.7511512637138367e-02" rms="1.0530658066272736e-01" purity="9.8923557996749878e-01" nType="-99"/>
        </Node>
      </Node>
    </BinaryTree>
    <BinaryTree type="DecisionTree" boostWeight="1.0000000000000000e+00" itree="33">
      <Node pos="s" depth="0" NCoef="0" IVar="7" Cut="6.6550889015197754e+00" cType="1" res="1.5859618782997131e-02" rms="1.4808517694473267e-01" purity="5.0567805767059326e-01" nType="0">
        <Node pos="l" depth="1" NCoef="0" IVar="2" Cut="6.1381822824478149e-01" cType="1" res="-1.9108021631836891e-02" rms="1.3827970623970032e-01" purity="1.7227150499820709e-01" nType="0">
          <Node pos="l" depth="2" NCoef="0" IVar="-1" Cut="0.0000000000000000e+00" cType="1" res="-3.5178624093532562e-02" rms="1.3990111649036407e-01" purity="6.3753716647624969e-02" nType="-99"/>
          <Node pos="r" depth="2" NCoef="0" IVar="-1" Cut="0.0000000000000000e+00" cType="1" res="3.7224717438220978e-02" rms="9.1370418667793274e-02" purity="9.9167227745056152e-01" nType="-99"/>
        </Node>
        <Node pos="r" depth="1" NCoef="0" IVar="2" Cut="1.4282479882240295e-01" cType="1" res="4.2871221899986267e-02" rms="1.4974686503410339e-01" purity="7.6322609186172485e-01" nType="0">
          <Node pos="l" depth="2" NCoef="0" IVar="-1" Cut="0.0000000000000000e+00" cType="1" res="-1.9170274958014488e-02" rms="1.7064386606216431e-01" purity="8.2008466124534607e-02" nType="-99"/>
          <Node pos="r" depth="2" NCoef="0" IVar="-1" Cut="0.0000000000000000e+00" cType="1" res="3.4742701798677444e-02" rms="1.4295673370361328e-01" purity="8.8201278448104858e-01" nType="-99"/>
        </Node>
      </Node>
    </BinaryTree>
    <BinaryTree type="DecisionTree" boostWeight="1.0000000000000000e+00" itree="34">
      <Node pos="s" depth="0" NCoef="0" IVar="6" Cut="4.9609135742187500e+03" cType="1" res="1.4810798689723015e-02" rms="1.4969822764396667e-01" purity="5.0215113162994385e-01" nType="0">
        <Node pos="l" depth="1" NCoef="0" IVar="8" Cut="2.5465284347534180e+01" cType="1" res="-1.4419764280319214e-02" rms="1.3446326553821564e-01" purity="1.5834438800811768e-01" nType="0">
          <Node pos="l" depth="2" NCoef="0" IVar="-1" Cut="0.0000000000000000e+00" cType="1" res="2.3468039929866791e-02" rms="2.1553583443164825e-01" purity="7.9823392629623413e-01" nType="-99"/>
          <Node pos="r" depth="2" NCoef="0" IVar="-1" Cut="0.0000000000000000e+00" cType="1" res="-3.6303628236055374e-02" rms="1.1390975862741470e-01" purity="6.0010708868503571e-02" nType="-99"/>
        </Node>
        <Node pos="r" depth="1" NCoef="0" IVar="4" Cut="6.5585491943359375e+02" cType="1" res="4.6056885272264481e-02" rms="1.5857994556427002e-01" purity="8.6966425180435181e-01" nType="0">
          <Node pos="l" depth="2" NCoef="0" IVar="-1" Cut="0.0000000000000000e+00" cType="1" res="8.7953107431530952e-03" rms="2.0184989273548126e-01" purity="6.9693952798843384e-01" nType="-99"/>
          <Node pos="r" depth="2" NCoef="0" IVar="-1" Cut="0.0000000000000000e+00" cType="1" res="3.9703425019979477e-02" rms="1.3171654939651489e-01" purity="9.4857001304626465e-01" nType="-99"/>
        </Node>
      </Node>
    </BinaryTree>
    <BinaryTree type="DecisionTree" boostWeight="1.0000000000000000e+00" itree="35">
      <Node pos="s" depth="0" NCoef="0" IVar="8" Cut="2.5013328552246094e+01" cType="1" res="1.3315316289663315e-02" rms="1.4479403197765350e-01" purity="4.9716523289680481e-01" nType="0">
        <Node pos="l" depth="1" NCoef="0" IVar="8" Cut="2.0565471649169922e+01" cType="1" res="5.1318537443876266e-02" rms="1.3801749050617218e-01" purity="9.4857114553451538e-01" nType="0">
          <Node pos="l" depth="2" NCoef="0" IVar="-1" Cut="0.0000000000000000e+00" cType="1" res="4.0089096873998642e-02" rms="1.2682710587978363e-01" purity="9.7181767225265503e-01" nType="-99"/>
          <Node pos="r" depth="2" NCoef="0" IVar="-1" Cut="0.0000000000000000e+00" cType="1" res="9.7435889765620232e-03" rms="1.7707653343677521e-01" purity="8.4066909551620483e-01" nType="-99"/>
        </Node>
        <Node pos="r" depth="1" NCoef="0" IVar="1" Cut="2.7455990314483643e+00" cType="1" res="-7.3882704600691795e-03" rms="1.4420104026794434e-01" purity="2.5124603509902954e-01" nType="0">
          <Node pos="l" depth="2" NCoef="0" IVar="-1" Cut="0.0000000000000000e+00" cType="1" res="-3.0255803838372231e-02" rms="1.2805874645709991e-01" purity="9.5508277416229248e-02" nType="-99"/>
          <Node pos="r" depth="2" NCoef="0" IVar="-1" Cut="0.0000000000000000e+00" cType="1" res="2.4888297542929649e-02" rms="1.8615405261516571e-01" purity="8.7867474555969238e-01" nType="-99"/>
        </Node>
      </Node>
    </BinaryTree>
    <BinaryTree type="DecisionTree" boostWeight="1.0000000000000000e+00" itree="36">
      <Node pos="s" depth="0" NCoef="0" IVar="5" Cut="4.7600779533386230e+00" cType="1" res="1.3052492402493954e-02" rms="1.4602544903755188e-01" purity="5.0100642442703247e-01" nType="0">
        <Node pos="l" depth="1" NCoef="0" IVar="7" Cut="6.0162658691406250e+00" cType="1" res="3.9088923484086990e-02" rms="1.5243402123451233e-01" purity="7.7539891004562378e-01" nType="0">
          <Node pos="l" depth="2" NCoef="0" IVar="-1" Cut="0.0000000000000000e+00" cType="1" res="-3.4098362084478140e-03" rms="1.8756000697612762e-01" purity="2.9745629429817200e-01" nType="-99"/>
          <Node pos="r" depth="2" NCoef="0" IVar="-1" Cut="0.0000000000000000e+00" cType="1" res="3.6617007106542587e-02" rms="1.4008787274360657e-01" purity="8.9609789848327637e-01" nType="-99"/>
        </Node>
        <Node pos="r" depth="1" NCoef="0" IVar="2" Cut="6.9931554794311523e-01" cType="1" res="-1.4346647076308727e-02" rms="1.3359093666076660e-01" purity="2.1225264668464661e-01" nType="0">
          <Node pos="l" depth="2" NCoef="0" IVar="-1" Cut="0.0000000000000000e+00" cType="1" res="-3.0745215713977814e-02" rms="1.3727636635303497e-01" purity="9.7318656742572784e-02" nType="-99"/>
          <Node pos="r" depth="2" NCoef="0" IVar="-1" Cut="0.0000000000000000e+00" cType="1" res="4.0126346051692963e-02" rms="7.1225434541702271e-02" purity="9.9622100591659546e-01" nType="-99"/>
        </Node>
      </Node>
    </BinaryTree>
    <BinaryTree type="DecisionTree" boostWeight="1.0000000000000000e+00" itree="37">
      <Node pos="s" depth="0" NCoef="0" IVar="4" Cut="6.5582214355468750e+02" cType="1" res="1.1085371486842632e-02" rms="1.4290578663349152e-01" purity="5.0220006704330444e-01" nType="0">
        <Node pos="l" depth="1" NCoef="0" IVar="2" Cut="6.1380279064178467e-01" cType="1" res="-1.1223977431654930e-02" rms="1.4576156437397003e-01" purity="2.7811640501022339e-01" nType="0">
          <Node pos="l" depth="2" NCoef="0" IVar="-1" Cut="0.0000000000000000e+00" cType="1" res="-2.7063529938459396e-02" rms="1.5483739972114563e-01" purity="1.1083672195672989e-01" nType="-99"/>
          <Node pos="r" depth="2" NCoef="0" IVar="-1" Cut="0.0000000000000000e+00" cType="1" res="3.6462351679801941e-02" rms="7.7347300946712494e-02" purity="9.9388378858566284e-01" nType="-99"/>
        </Node>
        <Node pos="r" depth="1" NCoef="0" IVar="2" Cut="1.4287942647933960e-01" cType="1" res="4.4702548533678055e-02" rms="1.3152855634689331e-01" purity="8.3986389636993408e-01" nType="0">
          <Node pos="l" depth="2" NCoef="0" IVar="-1" Cut="0.0000000000000000e+00" cType="1" res="-9.5015494152903557e-03" rms="1.9097532331943512e-01" purity="1.2473505735397339e-01" nType="-99"/>
          <Node pos="r" depth="2" NCoef="0" IVar="-1" Cut="0.0000000000000000e+00" cType="1" res="3.8365319371223450e-02" rms="1.2113986164331436e-01" purity="9.2272263765335083e-01" nType="-99"/>
        </Node>
      </Node>
    </BinaryTree>
    <BinaryTree type="DecisionTree" boostWeight="1.0000000000000000e+00" itree="38">
      <Node pos="s" depth="0" NCoef="0" IVar="7" Cut="7.0335202217102051e+00" cType="1" res="1.2390453368425369e-02" rms="1.4568929374217987e-01" purity="4.9664548039436340e-01" nType="0">
        <Node pos="l" depth="1" NCoef="0" IVar="2" Cut="5.7100194692611694e-01" cType="1" res="-1.2812145054340363e-02" rms="1.3738049566745758e-01" purity="1.9866578280925751e-01" nType="0">
          <Node pos="l" depth="2" NCoef="0" IVar="-1" Cut="0.0000000000000000e+00" cType="1" res="-2.9785906895995140e-02" rms="1.4108794927597046e-01" purity="6.0934100300073624e-02" nType="-99"/>
          <Node pos="r" depth="2" NCoef="0" IVar="-1" Cut="0.0000000000000000e+00" cType="1" res="3.3643145114183426e-02" rms="9.6788257360458374e-02" purity="9.8949456214904785e-01" nType="-99"/>
        </Node>
        <Node pos="r" depth="1" NCoef="0" IVar="5" Cut="1.8985868453979492e+01" cType="1" res="3.8077954202890396e-02" rms="1.4938324689865112e-01" purity="8.0035835504531860e-01" nType="0">
          <Node pos="l" depth="2" NCoef="0" IVar="-1" Cut="0.0000000000000000e+00" cType="1" res="3.4715577960014343e-02" rms="1.4462794363498688e-01" purity="8.8413125276565552e-01" nType="-99"/>
          <Node pos="r" depth="2" NCoef="0" IVar="-1" Cut="0.0000000000000000e+00" cType="1" res="-1.3806628994643688e-02" rms="1.7308612167835236e-01" purity="1.3919731974601746e-01" nType="-99"/>
        </Node>
      </Node>
    </BinaryTree>
    <BinaryTree type="DecisionTree" boostWeight="1.0000000000000000e+00" itree="39">
      <Node pos="s" depth="0" NCoef="0" IVar="4" Cut="6.5205975341796875e+02" cType="1" res="9.5100346952676773e-03" rms="1.4424364268779755e-01" purity="4.9629667401313782e-01" nType="0">
        <Node pos="l" depth="1" NCoef="0" IVar="2" Cut="6.9943577051162720e-01" cType="1" res="-8.8798599317669868e-03" rms="1.5104049444198608e-01" purity="2.7897477149963379e-01" nType="0">
          <Node pos="l" depth="2" NCoef="0" IVar="-1" Cut="0.0000000000000000e+00" cType="1" res="-2.0544784143567085e-02" rms="1.5984712541103363e-01" purity="1.4468261599540710e-01" nType="-99"/>
          <Node pos="r" depth="2" NCoef="0" IVar="-1" Cut="0.0000000000000000e+00" cType="1" res="3.5672467201948166e-02" rms="7.5749009847640991e-02" purity="9.9395304918289185e-01" nType="-99"/>
        </Node>
        <Node pos="r" depth="1" NCoef="0" IVar="7" Cut="5.5793848037719727e+00" cType="1" res="3.7873696535825729e-02" rms="1.2800244987010956e-01" purity="8.3148318529129028e-01" nType="0">
          <Node pos="l" depth="2" NCoef="0" IVar="-1" Cut="0.0000000000000000e+00" cType="1" res="-1.5741398558020592e-02" rms="1.3092236220836639e-01" purity="2.2456130385398865e-01" nType="-99"/>
          <Node pos="r" depth="2" NCoef="0" IVar="-1" Cut="0.0000000000000000e+00" cType="1" res="3.6030285060405731e-02" rms="1.2632386386394501e-01" purity="8.9752471446990967e-01" nType="-99"/>
        </Node>
      </Node>
    </BinaryTree>
    <BinaryTree type="DecisionTree" boostWeight="1.0000000000000000e+00" itree="40">
      <Node pos="s" depth="0" NCoef="0" IVar="1" Cut="1.7371126413345337e+00" cType="1" res="1.1435289867222309e-02" rms="1.4137762784957886e-01" purity="4.9995326995849609e-01" nType="0">
        <Node pos="l" depth="1" NCoef="0" IVar="6" Cut="5.4689897460937500e+03" cType="1" res="-1.8572960048913956e-02" rms="1.0983118414878845e-01" purity="8.8963940739631653e-02" nType="0">
          <Node pos="l" depth="2" NCoef="0" IVar="-1" Cut="0.0000000000000000e+00" cType="1" res="-4.6205278486013412e-02" rms="8.6509861052036285e-02" purity="3.3758532255887985e-02" nType="-99"/>
          <Node pos="r" depth="2" NCoef="0" IVar="-1" Cut="0.0000000000000000e+00" cType="1" res="1.3769035227596760e-02" rms="2.1673077344894409e-01" purity="5.3118383884429932e-01" nType="-99"/>
        </Node>
        <Node pos="r" depth="1" NCoef="0" IVar="5" Cut="9.5200586318969727e+00" cType="1" res="2.7041308581829071e-02" rms="1.5296112000942230e-01" purity="7.1369141340255737e-01" nType="0">
          <Node pos="l" depth="2" NCoef="0" IVar="-1" Cut="0.0000000000000000e+00" cType="1" res="3.2805852591991425e-02" rms="1.4457540214061737e-01" purity="8.6221760511398315e-01" nType="-99"/>
          <Node pos="r" depth="2" NCoef="0" IVar="-1" Cut="0.0000000000000000e+00" cType="1" res="-1.0531579144299030e-02" rms="1.7247766256332397e-01" purity="2.2040207684040070e-01" nType="-99"/>
        </Node>
      </Node>
    </BinaryTree>
    <BinaryTree type="DecisionTree" boostWeight="1.0000000000000000e+00" itree="41">
      <Node pos="s" depth="0" NCoef="0" IVar="5" Cut="4.7508344650268555e+00" cType="1" res="9.9091790616512299e-03" rms="1.4768412709236145e-01" purity="5.0450003147125244e-01" nType="0">
        <Node pos="l" depth="1" NCoef="0" IVar="7" Cut="5.0349125862121582e+00" cType="1" res="3.2312702387571335e-02" rms="1.5326298773288727e-01" purity="7.8135961294174194e-01" nType="0">
          <Node pos="l" depth="2" NCoef="0" IVar="-1" Cut="0.0000000000000000e+00" cType="1" res="-5.3724881261587143e-02" rms="1.2503878772258759e-01" purity="7.8883700072765350e-02" nType="-99"/>
          <Node pos="r" depth="2" NCoef="0" IVar="-1" Cut="0.0000000000000000e+00" cType="1" res="3.3222895115613937e-02" rms="1.5355232357978821e-01" purity="8.3741229772567749e-01" nType="-99"/>
        </Node>
        <Node pos="r" depth="1" NCoef="0" IVar="2" Cut="6.1375343799591064e-01" cType="1" res="-1.3359582051634789e-02" rms="1.3785529136657715e-01" purity="2.1694780886173248e-01" nType="0">
          <Node pos="l" depth="2" NCoef="0" IVar="-1" Cut="0.0000000000000000e+00" cType="1" res="-3.1634047627449036e-02" rms="1.4328275620937347e-01" purity="7.7518276870250702e-02" nType="-99"/>
          <Node pos="r" depth="2" NCoef="0" IVar="-1" Cut="0.0000000000000000e+00" cType="1" res="3.6258574575185776e-02" rms="8.3908155560493469e-02" purity="9.9322575330734253e-01" nType="-99"/>
        </Node>
      </Node>
    </BinaryTree>
    <BinaryTree type="DecisionTree" boostWeight="1.0000000000000000e+00" itree="42">
      <Node pos="s" depth="0" NCoef="0" IVar="7" Cut="7.6296234130859375e+00" cType="1" res="7.9509466886520386e-03" rms="1.3886944949626923e-01" purity="5.0576227903366089e-01" nType="0">
        <Node pos="l" depth="1" NCoef="0" IVar="4" Cut="5.9556170654296875e+02" cType="1" res="-8.4877870976924896e-03" rms="1.3726632297039032e-01" purity="2.6673096418380737e-01" nType="0">
          <Node pos="l" depth="2" NCoef="0" IVar="-1" Cut="0.0000000000000000e+00" cType="1" res="-3.5186082124710083e-02" rms="1.2598229944705963e-01" purity="1.1207392811775208e-01" nType="-99"/>
          <Node pos="r" depth="2" NCoef="0" IVar="-1" Cut="0.0000000000000000e+00" cType="1" res="1.6375359147787094e-02" rms="1.5305675566196442e-01" purity="5.6138259172439575e-01" nType="-99"/>
        </Node>
        <Node pos="r" depth="1" NCoef="0" IVar="5" Cut="2.3763210296630859e+01" cType="1" res="3.1156754121184349e-02" rms="1.3780295848846436e-01" purity="8.4319180250167847e-01" nType="0">
          <Node pos="l" depth="2" NCoef="0" IVar="-1" Cut="0.0000000000000000e+00" cType="1" res="3.2712377607822418e-02" rms="1.3271968066692352e-01" purity="9.0145081281661987e-01" nType="-99"/>
          <Node pos="r" depth="2" NCoef="0" IVar="-1" Cut="0.0000000000000000e+00" cType="1" res="-2.0477842539548874e-02" rms="1.8116322159767151e-01" purity="1.2388763576745987e-01" nType="-99"/>
        </Node>
      </Node>
    </BinaryTree>
    <BinaryTree type="DecisionTree" boostWeight="1.0000000000000000e+00" itree="43">
      <Node pos="s" depth="0" NCoef="0" IVar="5" Cut="9.5052795410156250e+00" cType="1" res="1.0124449618160725e-02" rms="1.3999965786933899e-01" purity="5.0247806310653687e-01" nType="0">
        <Node pos="l" depth="1" NCoef="0" IVar="7" Cut="6.1245884895324707e+00" cType="1" res="2.3535929620265961e-02" rms="1.4886505901813507e-01" purity="7.0895951986312866e-01" nType="0">
          <Node pos="l" depth="2" NCoef="0" IVar="-1" Cut="0.0000000000000000e+00" cType="1" res="-7.0611657574772835e-03" rms="1.5598164498806000e-01" purity="2.3714940249919891e-01" nType="-99"/>
          <Node pos="r" depth="2" NCoef="0" IVar="-1" Cut="0.0000000000000000e+00" cType="1" res="3.1342361122369766e-02" rms="1.4509987831115723e-01" purity="8.6271202564239502e-01" nType="-99"/>
        </Node>
        <Node pos="r" depth="1" NCoef="0" IVar="7" Cut="9.0768318176269531e+00" cType="1" res="-1.6373191028833389e-02" rms="1.1611516028642654e-01" purity="9.4523854553699493e-02" nType="0">
          <Node pos="l" depth="2" NCoef="0" IVar="-1" Cut="0.0000000000000000e+00" cType="1" res="-3.7153184413909912e-02" rms="1.0176683217287064e-01" purity="5.7582233101129532e-02" nType="-99"/>
          <Node pos="r" depth="2" NCoef="0" IVar="-1" Cut="0.0000000000000000e+00" cType="1" res="1.5863489359617233e-02" rms="2.1602448821067810e-01" purity="5.1012921333312988e-01" nType="-99"/>
        </Node>
      </Node>
    </BinaryTree>
    <BinaryTree type="DecisionTree" boostWeight="1.0000000000000000e+00" itree="44">
      <Node pos="s" depth="0" NCoef="0" IVar="7" Cut="7.2548394203186035e+00" cType="1" res="7.6986309140920639e-03" rms="1.3846559822559357e-01" purity="4.9902862310409546e-01" nType="0">
        <Node pos="l" depth="1" NCoef="0" IVar="8" Cut="2.4318164825439453e+01" cType="1" res="-1.0407332330942154e-02" rms="1.3386964797973633e-01" purity="2.1602092683315277e-01" nType="0">
          <Node pos="l" depth="2" NCoef="0" IVar="-1" Cut="0.0000000000000000e+00" cType="1" res="2.1215371787548065e-02" rms="1.9699659943580627e-01" purity="8.4624278545379639e-01" nType="-99"/>
          <Node pos="r" depth="2" NCoef="0" IVar="-1" Cut="0.0000000000000000e+00" cType="1" res="-3.6606691777706146e-02" rms="1.1455076932907104e-01" purity="8.6098678410053253e-02" nType="-99"/>
        </Node>
        <Node pos="r" depth="1" NCoef="0" IVar="2" Cut="1.4283107221126556e-01" cType="1" res="2.8451291844248772e-02" rms="1.4071568846702576e-01" purity="8.2340586185455322e-01" nType="0">
          <Node pos="l" depth="2" NCoef="0" IVar="-1" Cut="0.0000000000000000e+00" cType="1" res="-1.3962161727249622e-02" rms="1.9006787240505219e-01" purity="1.2158313393592834e-01" nType="-99"/>
          <Node pos="r" depth="2" NCoef="0" IVar="-1" Cut="0.0000000000000000e+00" cType="1" res="3.3255342394113541e-02" rms="1.3221989572048187e-01" purity="9.1140842437744141e-01" nType="-99"/>
        </Node>
      </Node>
    </BinaryTree>
    <BinaryTree type="DecisionTree" boostWeight="1.0000000000000000e+00" itree="45">
      <Node pos="s" depth="0" NCoef="0" IVar="7" Cut="7.6199564933776855e+00" cType="1" res="6.3641020096838474e-03" rms="1.3577340543270111e-01" purity="4.9611636996269226e-01" nType="0">
        <Node pos="l" depth="1" NCoef="0" IVar="2" Cut="5.2817523479461670e-01" cType="1" res="-7.2044259868562222e-03" rms="1.3395963609218597e-01" purity="2.6559922099113464e-01" nType="0">
          <Node pos="l" depth="2" NCoef="0" IVar="-1" Cut="0.0000000000000000e+00" cType="1" res="-2.4089025333523750e-02" rms="1.3850396871566772e-01" purity="7.2831951081752777e-02" nType="-99"/>
          <Node pos="r" depth="2" NCoef="0" IVar="-1" Cut="0.0000000000000000e+00" cType="1" res="2.8181629255414009e-02" rms="1.0844635963439941e-01" purity="9.8435848951339722e-01" nType="-99"/>
        </Node>
        <Node pos="r" depth="1" NCoef="0" IVar="5" Cut="2.3800161361694336e+01" cType="1" res="2.6297912001609802e-02" rms="1.3596075773239136e-01" purity="8.3477407693862915e-01" nType="0">
          <Node pos="l" depth="2" NCoef="0" IVar="-1" Cut="0.0000000000000000e+00" cType="1" res="3.0894707888364792e-02" rms="1.3269197940826416e-01" purity="8.9466345310211182e-01" nType="-99"/>
          <Node pos="r" depth="2" NCoef="0" IVar="-1" Cut="0.0000000000000000e+00" cType="1" res="-1.7874315381050110e-02" rms="1.6207322478294373e-01" purity="1.3782396912574768e-01" nType="-99"/>
        </Node>
      </Node>
    </BinaryTree>
    <BinaryTree type="DecisionTree" boostWeight="1.0000000000000000e+00" itree="46">
      <Node pos="s" depth="0" NCoef="0" IVar="5" Cut="4.7600779533386230e+00" cType="1" res="7.8020580112934113e-03" rms="1.3861912488937378e-01" purity="5.0217145681381226e-01" nType="0">
        <Node pos="l" depth="1" NCoef="0" IVar="6" Cut="2.0458432617187500e+03" cType="1" res="2.3570319637656212e-02" rms="1.4401696622371674e-01" purity="7.8281450271606445e-01" nType="0">
          <Node pos="l" depth="2" NCoef="0" IVar="-1" Cut="0.0000000000000000e+00" cType="1" res="-2.2330066189169884e-02" rms="1.3406561315059662e-01" purity="1.4654462039470673e-01" nType="-99"/>
          <Node pos="r" depth="2" NCoef="0" IVar="-1" Cut="0.0000000000000000e+00" cType="1" res="2.8439940884709358e-02" rms="1.4435313642024994e-01" purity="8.5623097419738770e-01" nType="-99"/>
        </Node>
        <Node pos="r" depth="1" NCoef="0" IVar="2" Cut="5.7098400592803955e-01" cType="1" res="-8.5844947025179863e-03" rms="1.3077810406684875e-01" purity="2.1052403748035431e-01" nType="0">
          <Node pos="l" depth="2" NCoef="0" IVar="-1" Cut="0.0000000000000000e+00" cType="1" res="-2.8975188732147217e-02" rms="1.3548167049884796e-01" purity="6.1441760510206223e-02" nType="-99"/>
          <Node pos="r" depth="2" NCoef="0" IVar="-1" Cut="0.0000000000000000e+00" cType="1" res="3.4633424133062363e-02" rms="8.9954741299152374e-02" purity="9.9053639173507690e-01" nType="-99"/>
        </Node>
      </Node>
    </BinaryTree>
    <BinaryTree type="DecisionTree" boostWeight="1.0000000000000000e+00" itree="47">
      <Node pos="s" depth="0" NCoef="0" IVar="4" Cut="6.3644494628906250e+02" cType="1" res="7.1795498952269554e-03" rms="1.4035496115684509e-01" purity="4.9917665123939514e-01" nType="0">
        <Node pos="l" depth="1" NCoef="0" IVar="2" Cut="6.1377590894699097e-01" cType="1" res="-6.1850789934396744e-03" rms="1.4771495759487152e-01" purity="2.7155250310897827e-01" nType="0">
          <Node pos="l" depth="2" NCoef="0" IVar="-1" Cut="0.0000000000000000e+00" cType="1" res="-1.7321454361081123e-02" rms="1.5793436765670776e-01" purity="1.1413270980119705e-01" nType="-99"/>
          <Node pos="r" depth="2" NCoef="0" IVar="-1" Cut="0.0000000000000000e+00" cType="1" res="3.1781449913978577e-02" rms="8.0177329480648041e-02" purity="9.9287271499633789e-01" nType="-99"/>
        </Node>
        <Node pos="r" depth="1" NCoef="0" IVar="7" Cut="5.1618008613586426e+00" cType="1" res="2.5971626862883568e-02" rms="1.2694098055362701e-01" purity="8.1924021244049072e-01" nType="0">
          <Node pos="l" depth="2" NCoef="0" IVar="-1" Cut="0.0000000000000000e+00" cType="1" res="-2.9840219765901566e-02" rms="1.1195028573274612e-01" purity="1.3451617956161499e-01" nType="-99"/>
          <Node pos="r" depth="2" NCoef="0" IVar="-1" Cut="0.0000000000000000e+00" cType="1" res="3.1694348901510239e-02" rms="1.2717951834201813e-01" purity="8.6578530073165894e-01" nType="-99"/>
        </Node>
      </Node>
    </BinaryTree>
    <BinaryTree type="DecisionTree" boostWeight="1.0000000000000000e+00" itree="48">
      <Node pos="s" depth="0" NCoef="0" IVar="4" Cut="6.5203277587890625e+02" cType="1" res="5.5490313097834587e-03" rms="1.3589128851890564e-01" purity="4.9809053540229797e-01" nType="0">
        <Node pos="l" depth="1" NCoef="0" IVar="2" Cut="6.1378610134124756e-01" cType="1" res="-6.9506773725152016e-03" rms="1.4115037024021149e-01" purity="2.7491584420204163e-01" nType="0">
          <Node pos="l" depth="2" NCoef="0" IVar="-1" Cut="0.0000000000000000e+00" cType="1" res="-1.8853131681680679e-02" rms="1.5152692794799805e-01" purity="1.1527485400438309e-01" nType="-99"/>
          <Node pos="r" depth="2" NCoef="0" IVar="-1" Cut="0.0000000000000000e+00" cType="1" res="3.3428654074668884e-02" rms="7.1400858461856842e-02" purity="9.9465215206146240e-01" nType="-99"/>
        </Node>
        <Node pos="r" depth="1" NCoef="0" IVar="8" Cut="4.7746623992919922e+01" cType="1" res="2.4495348334312439e-02" rms="1.2514889240264893e-01" purity="8.3636540174484253e-01" nType="0">
          <Node pos="l" depth="2" NCoef="0" IVar="-1" Cut="0.0000000000000000e+00" cType="1" res="3.6590240895748138e-02" rms="1.1305593699216843e-01" purity="9.5834410190582275e-01" nType="-99"/>
          <Node pos="r" depth="2" NCoef="0" IVar="-1" Cut="0.0000000000000000e+00" cType="1" res="3.0148692894726992e-03" rms="1.5596567094326019e-01" purity="4.4358035922050476e-01" nType="-99"/>
        </Node>
      </Node>
    </BinaryTree>
    <BinaryTree type="DecisionTree" boostWeight="1.0000000000000000e+00" itree="49">
      <Node pos="s" depth="0" NCoef="0" IVar="1" Cut="1.7555632591247559e+00" cType="1" res="7.7070146799087524e-03" rms="1.2984782457351685e-01" purity="4.9802741408348083e-01" nType="0">
        <Node pos="l" depth="1" NCoef="0" IVar="8" Cut="2.6783239364624023e+01" cType="1" res="-1.1848229914903641e-02" rms="9.8860338330268860e-02" purity="9.4380311667919159e-02" nType="0">
          <Node pos="l" depth="2" NCoef="0" IVar="-1" Cut="0.0000000000000000e+00" cType="1" res="1.1676657944917679e-02" rms="2.0409311354160309e-01" purity="6.6058456897735596e-01" nType="-99"/>
          <Node pos="r" depth="2" NCoef="0" IVar="-1" Cut="0.0000000000000000e+00" cType="1" res="-4.4224306941032410e-02" rms="7.7485151588916779e-02" purity="2.9742667451500893e-02" nType="-99"/>
        </Node>
        <Node pos="r" depth="1" NCoef="0" IVar="5" Cut="9.5052795410156250e+00" cType="1" res="1.8748691305518150e-02" rms="1.4326295256614685e-01" purity="7.2594273090362549e-01" nType="0">
          <Node pos="l" depth="2" NCoef="0" IVar="-1" Cut="0.0000000000000000e+00" cType="1" res="2.9459057375788689e-02" rms="1.3803005218505859e-01" purity="8.7709158658981323e-01" nType="-99"/>
          <Node pos="r" depth="2" NCoef="0" IVar="-1" Cut="0.0000000000000000e+00" cType="1" res="-8.5686715319752693e-03" rms="1.5684665739536285e-01" purity="2.1283125877380371e-01" nType="-99"/>
        </Node>
      </Node>
    </BinaryTree>
    <BinaryTree type="DecisionTree" boostWeight="1.0000000000000000e+00" itree="50">
      <Node pos="s" depth="0" NCoef="0" IVar="2" Cut="1.8564520776271820e-01" cType="1" res="5.4384046234190464e-03" rms="1.3335666060447693e-01" purity="5.0373089313507080e-01" nType="0">
        <Node pos="l" depth="1" NCoef="0" IVar="7" Cut="8.2896308898925781e+00" cType="1" res="-1.1421911418437958e-02" rms="1.1682318150997162e-01" purity="4.1048087179660797e-02" nType="0">
          <Node pos="l" depth="2" NCoef="0" IVar="-1" Cut="0.0000000000000000e+00" cType="1" res="-3.5258606076240540e-02" rms="1.0101608186960220e-01" purity="1.9850831478834152e-02" nType="-99"/>
          <Node pos="r" depth="2" NCoef="0" IVar="-1" Cut="0.0000000000000000e+00" cType="1" res="1.3900087215006351e-02" rms="2.1504032611846924e-01" purity="2.4796609580516815e-01" nType="-99"/>
        </Node>
        <Node pos="r" depth="1" NCoef="0" IVar="1" Cut="1.7442003488540649e+00" cType="1" res="1.6933362931013107e-02" rms="1.4240124821662903e-01" purity="8.1917691230773926e-01" nType="0">
          <Node pos="l" depth="2" NCoef="0" IVar="-1" Cut="0.0000000000000000e+00" cType="1" res="-9.7518516704440117e-03" rms="1.8236400187015533e-01" purity="3.2199928164482117e-01" nType="-99"/>
          <Node pos="r" depth="2" NCoef="0" IVar="-1" Cut="0.0000000000000000e+00" cType="1" res="2.5603745132684708e-02" rms="1.3257044553756714e-01" purity="9.1588443517684937e-01" nType="-99"/>
        </Node>
      </Node>
    </BinaryTree>
    <BinaryTree type="DecisionTree" boostWeight="1.0000000000000000e+00" itree="51">
      <Node pos="s" depth="0" NCoef="0" IVar="8" Cut="2.5425561904907227e+01" cType="1" res="4.9293767660856247e-03" rms="1.3436158001422882e-01" purity="4.9859631061553955e-01" nType="0">
        <Node pos="l" depth="1" NCoef="0" IVar="3" Cut="9.4990335404872894e-02" cType="1" res="2.3614371195435524e-02" rms="1.3335187733173370e-01" purity="9.4206333160400391e-01" nType="0">
          <Node pos="l" depth="2" NCoef="0" IVar="-1" Cut="0.0000000000000000e+00" cType="1" res="-2.6359805837273598e-02" rms="1.7647702991962433e-01" purity="7.8559243679046631e-01" nType="-99"/>
          <Node pos="r" depth="2" NCoef="0" IVar="-1" Cut="0.0000000000000000e+00" cType="1" res="3.1642138957977295e-02" rms="1.2773141264915466e-01" purity="9.5610898733139038e-01" nType="-99"/>
        </Node>
        <Node pos="r" depth="1" NCoef="0" IVar="4" Cut="1.1025798339843750e+03" cType="1" res="-5.7152281515300274e-03" rms="1.3377152383327484e-01" purity="2.4595873057842255e-01" nType="0">
          <Node pos="l" depth="2" NCoef="0" IVar="-1" Cut="0.0000000000000000e+00" cType="1" res="-1.6340242698788643e-02" rms="1.3275258243083954e-01" purity="1.7826271057128906e-01" nType="-99"/>
          <Node pos="r" depth="2" NCoef="0" IVar="-1" Cut="0.0000000000000000e+00" cType="1" res="3.7655696272850037e-02" rms="1.3691553473472595e-01" purity="9.5230031013488770e-01" nType="-99"/>
        </Node>
      </Node>
    </BinaryTree>
    <BinaryTree type="DecisionTree" boostWeight="1.0000000000000000e+00" itree="52">
      <Node pos="s" depth="0" NCoef="0" IVar="2" Cut="1.8564404547214508e-01" cType="1" res="4.4881226494908333e-03" rms="1.3300684094429016e-01" purity="4.9712914228439331e-01" nType="0">
        <Node pos="l" depth="1" NCoef="0" IVar="7" Cut="8.2889928817749023e+00" cType="1" res="-1.1092063039541245e-02" rms="1.2096255272626877e-01" purity="3.8559723645448685e-02" nType="0">
          <Node pos="l" depth="2" NCoef="0" IVar="-1" Cut="0.0000000000000000e+00" cType="1" res="-3.1791187822818756e-02" rms="1.0680109262466431e-01" purity="2.2077882662415504e-02" nType="-99"/>
          <Node pos="r" depth="2" NCoef="0" IVar="-1" Cut="0.0000000000000000e+00" cType="1" res="7.1560428477823734e-03" rms="2.1398733556270599e-01" purity="2.0002491772174835e-01" nType="-99"/>
        </Node>
        <Node pos="r" depth="1" NCoef="0" IVar="7" Cut="5.2054991722106934e+00" cType="1" res="1.5404480509459972e-02" rms="1.3980270922183990e-01" purity="8.1842875480651855e-01" nType="0">
          <Node pos="l" depth="2" NCoef="0" IVar="-1" Cut="0.0000000000000000e+00" cType="1" res="-2.7477569878101349e-02" rms="1.7498905956745148e-01" purity="1.8775275349617004e-01" nType="-99"/>
          <Node pos="r" depth="2" NCoef="0" IVar="-1" Cut="0.0000000000000000e+00" cType="1" res="2.1435588598251343e-02" rms="1.3654553890228271e-01" purity="8.6160892248153687e-01" nType="-99"/>
        </Node>
      </Node>
    </BinaryTree>
    <BinaryTree type="DecisionTree" boostWeight="1.0000000000000000e+00" itree="53">
      <Node pos="s" depth="0" NCoef="0" IVar="4" Cut="6.7999169921875000e+02" cType="1" res="5.6689241901040077e-03" rms="1.3651822507381439e-01" purity="5.0109618902206421e-01" nType="0">
        <Node pos="l" depth="1" NCoef="0" IVar="8" Cut="2.5037418365478516e+01" cType="1" res="-4.6981289051473141e-03" rms="1.4182794094085693e-01" purity="2.8891980648040771e-01" nType="0">
          <Node pos="l" depth="2" NCoef="0" IVar="-1" Cut="0.0000000000000000e+00" cType="1" res="1.3992607593536377e-02" rms="1.7756578326225281e-01" purity="8.8417202234268188e-01" nType="-99"/>
          <Node pos="r" depth="2" NCoef="0" IVar="-1" Cut="0.0000000000000000e+00" cType="1" res="-2.1088054403662682e-02" rms="1.2907531857490540e-01" purity="1.1716350913047791e-01" nType="-99"/>
        </Node>
        <Node pos="r" depth="1" NCoef="0" IVar="2" Cut="3.5694801807403564e-01" cType="1" res="2.3474263027310371e-02" rms="1.2488899379968643e-01" purity="8.6550766229629517e-01" nType="0">
          <Node pos="l" depth="2" NCoef="0" IVar="-1" Cut="0.0000000000000000e+00" cType="1" res="2.7932418510317802e-02" rms="2.3827779293060303e-01" purity="4.1605132818222046e-01" nType="-99"/>
          <Node pos="r" depth="2" NCoef="0" IVar="-1" Cut="0.0000000000000000e+00" cType="1" res="3.2267317175865173e-02" rms="6.0997992753982544e-02" purity="9.9330908060073853e-01" nType="-99"/>
        </Node>
      </Node>
    </BinaryTree>
    <BinaryTree type="DecisionTree" boostWeight="1.0000000000000000e+00" itree="54">
      <Node pos="s" depth="0" NCoef="0" IVar="8" Cut="4.8362159729003906e+01" cType="1" res="4.2386441491544247e-03" rms="1.3511873781681061e-01" purity="5.0168520212173462e-01" nType="0">
        <Node pos="l" depth="1" NCoef="0" IVar="3" Cut="9.5037125051021576e-02" cType="1" res="1.4356904663145542e-02" rms="1.4758472144603729e-01" purity="7.7283859252929688e-01" nType="0">
          <Node pos="l" depth="2" NCoef="0" IVar="-1" Cut="0.0000000000000000e+00" cType="1" res="-2.3587167263031006e-02" rms="1.6207812726497650e-01" purity="5.2744531631469727e-01" nType="-99"/>
          <Node pos="r" depth="2" NCoef="0" IVar="-1" Cut="0.0000000000000000e+00" cType="1" res="2.2615663707256317e-02" rms="1.4487254619598389e-01" purity="8.0638003349304199e-01" nType="-99"/>
        </Node>
        <Node pos="r" depth="1" NCoef="0" IVar="2" Cut="7.4216711521148682e-01" cType="1" res="-9.3039050698280334e-03" rms="1.1497735977172852e-01" purity="1.3876631855964661e-01" nType="0">
          <Node pos="l" depth="2" NCoef="0" IVar="-1" Cut="0.0000000000000000e+00" cType="1" res="-2.7609778568148613e-02" rms="1.1656170338392258e-01" purity="6.4465001225471497e-02" nType="-99"/>
          <Node pos="r" depth="2" NCoef="0" IVar="-1" Cut="0.0000000000000000e+00" cType="1" res="3.3463649451732635e-02" rms="8.7205842137336731e-02" purity="9.9325740337371826e-01" nType="-99"/>
        </Node>
      </Node>
    </BinaryTree>
    <BinaryTree type="DecisionTree" boostWeight="1.0000000000000000e+00" itree="55">
      <Node pos="s" depth="0" NCoef="0" IVar="2" Cut="4.8540055751800537e-01" cType="1" res="3.7055122666060925e-03" rms="1.3010497391223907e-01" purity="4.9994051456451416e-01" nType="0">
        <Node pos="l" depth="1" NCoef="0" IVar="4" Cut="8.6358929443359375e+02" cType="1" res="-4.8903138376772404e-03" rms="1.5859009325504303e-01" purity="1.5812423825263977e-01" nType="0">
          <Node pos="l" depth="2" NCoef="0" IVar="-1" Cut="0.0000000000000000e+00" cType="1" res="-1.4076912775635719e-02" rms="1.5179389715194702e-01" purity="1.0483952611684799e-01" nType="-99"/>
          <Node pos="r" depth="2" NCoef="0" IVar="-1" Cut="0.0000000000000000e+00" cType="1" res="2.6465842500329018e-02" rms="2.1393467485904694e-01" purity="7.5073254108428955e-01" nType="-99"/>
        </Node>
        <Node pos="r" depth="1" NCoef="0" IVar="0" Cut="5.3668212890625000e+02" cType="1" res="1.6102056950330734e-02" rms="6.9335848093032837e-02" purity="9.9289375543594360e-01" nType="0">
          <Node pos="l" depth="2" NCoef="0" IVar="-1" Cut="0.0000000000000000e+00" cType="1" res="3.3529810607433319e-02" rms="6.2049578875303268e-02" purity="9.9337244033813477e-01" nType="-99"/>
          <Node pos="r" depth="2" NCoef="0" IVar="-1" Cut="0.0000000000000000e+00" cType="1" res="2.6417188346385956e-02" rms="7.5747340917587280e-02" purity="9.9241453409194946e-01" nType="-99"/>
        </Node>
      </Node>
    </BinaryTree>
    <BinaryTree type="DecisionTree" boostWeight="1.0000000000000000e+00" itree="56">
      <Node pos="s" depth="0" NCoef="0" IVar="4" Cut="6.3646118164062500e+02" cType="1" res="3.4291071351617575e-03" rms="1.2830133736133575e-01" purity="4.9566280841827393e-01" nType="0">
        <Node pos="l" depth="1" NCoef="0" IVar="4" Cut="5.3512298583984375e+02" cType="1" res="-6.0136830434203148e-03" rms="1.3572131097316742e-01" purity="2.6535692811012268e-01" nType="0">
          <Node pos="l" depth="2" NCoef="0" IVar="-1" Cut="0.0000000000000000e+00" cType="1" res="-2.1210627630352974e-02" rms="1.2987333536148071e-01" purity="2.1920013427734375e-01" nType="-99"/>
          <Node pos="r" depth="2" NCoef="0" IVar="-1" Cut="0.0000000000000000e+00" cType="1" res="1.6668632626533508e-02" rms="1.4943931996822357e-01" purity="3.9385896921157837e-01" nType="-99"/>
        </Node>
        <Node pos="r" depth="1" NCoef="0" IVar="6" Cut="4.3909755859375000e+03" cType="1" res="1.6959324479103088e-02" rms="1.1551346629858017e-01" purity="8.2565945386886597e-01" nType="0">
          <Node pos="l" depth="2" NCoef="0" IVar="-1" Cut="0.0000000000000000e+00" cType="1" res="-1.1152788065373898e-02" rms="1.1805436760187149e-01" purity="2.0034117996692657e-01" nType="-99"/>
          <Node pos="r" depth="2" NCoef="0" IVar="-1" Cut="0.0000000000000000e+00" cType="1" res="3.0036557465791702e-02" rms="1.1455155164003372e-01" purity="9.3557006120681763e-01" nType="-99"/>
        </Node>
      </Node>
    </BinaryTree>
    <BinaryTree type="DecisionTree" boostWeight="1.0000000000000000e+00" itree="57">
      <Node pos="s" depth="0" NCoef="0" IVar="5" Cut="4.7600736618041992e+00" cType="1" res="4.6906475909054279e-03" rms="1.2768454849720001e-01" purity="5.0508588552474976e-01" nType="0">
        <Node pos="l" depth="1" NCoef="0" IVar="7" Cut="5.3496599197387695e+00" cType="1" res="1.5934463590383530e-02" rms="1.3162410259246826e-01" purity="7.7797245979309082e-01" nType="0">
          <Node pos="l" depth="2" NCoef="0" IVar="-1" Cut="0.0000000000000000e+00" cType="1" res="-2.9822407290339470e-02" rms="1.2720340490341187e-01" purity="1.2214712053537369e-01" nType="-99"/>
          <Node pos="r" depth="2" NCoef="0" IVar="-1" Cut="0.0000000000000000e+00" cType="1" res="2.7449859306216240e-02" rms="1.3138312101364136e-01" purity="8.5919475555419922e-01" nType="-99"/>
        </Node>
        <Node pos="r" depth="1" NCoef="0" IVar="1" Cut="4.1925811767578125e+00" cType="1" res="-7.2885365225374699e-03" rms="1.2221611291170120e-01" purity="2.1435205638408661e-01" nType="0">
          <Node pos="l" depth="2" NCoef="0" IVar="-1" Cut="0.0000000000000000e+00" cType="1" res="-2.3353481665253639e-02" rms="1.1831290274858475e-01" purity="1.4537349343299866e-01" nType="-99"/>
          <Node pos="r" depth="2" NCoef="0" IVar="-1" Cut="0.0000000000000000e+00" cType="1" res="3.3360607922077179e-02" rms="1.5085858106613159e-01" purity="9.3174082040786743e-01" nType="-99"/>
        </Node>
      </Node>
    </BinaryTree>
    <BinaryTree type="DecisionTree" boostWeight="1.0000000000000000e+00" itree="58">
      <Node pos="s" depth="0" NCoef="0" IVar="8" Cut="4.8912239074707031e+01" cType="1" res="4.1616386733949184e-03" rms="1.3015958666801453e-01" purity="5.0280064344406128e-01" nType="0">
        <Node pos="l" depth="1" NCoef="0" IVar="7" Cut="5.7335562705993652e+00" cType="1" res="1.2896826490759850e-02" rms="1.4236921072006226e-01" purity="7.7070289850234985e-01" nType="0">
          <Node pos="l" depth="2" NCoef="0" IVar="-1" Cut="0.0000000000000000e+00" cType="1" res="-1.0280380956828594e-02" rms="1.4266069233417511e-01" purity="2.1648451685905457e-01" nType="-99"/>
          <Node pos="r" depth="2" NCoef="0" IVar="-1" Cut="0.0000000000000000e+00" cType="1" res="2.1784005686640739e-02" rms="1.4201043546199799e-01" purity="8.6230027675628662e-01" nType="-99"/>
        </Node>
        <Node pos="r" depth="1" NCoef="0" IVar="1" Cut="3.4252009391784668e+00" cType="1" res="-7.6939323917031288e-03" rms="1.1036887764930725e-01" purity="1.3919833302497864e-01" nType="0">
          <Node pos="l" depth="2" NCoef="0" IVar="-1" Cut="0.0000000000000000e+00" cType="1" res="-3.0182147398591042e-02" rms="9.6229374408721924e-02" purity="7.1900233626365662e-02" nType="-99"/>
          <Node pos="r" depth="2" NCoef="0" IVar="-1" Cut="0.0000000000000000e+00" cType="1" res="1.7276985570788383e-02" rms="2.0492227375507355e-01" purity="8.5135310888290405e-01" nType="-99"/>
        </Node>
      </Node>
    </BinaryTree>
    <BinaryTree type="DecisionTree" boostWeight="1.0000000000000000e+00" itree="59">
      <Node pos="s" depth="0" NCoef="0" IVar="7" Cut="8.3572540283203125e+00" cType="1" res="1.9296072423458099e-03" rms="1.3394026458263397e-01" purity="4.9821352958679199e-01" nType="0">
        <Node pos="l" depth="1" NCoef="0" IVar="4" Cut="6.5205975341796875e+02" cType="1" res="-4.1473470628261566e-03" rms="1.3795654475688934e-01" purity="3.3591988682746887e-01" nType="0">
          <Node pos="l" depth="2" NCoef="0" IVar="-1" Cut="0.0000000000000000e+00" cType="1" res="-2.0487047731876373e-02" rms="1.3570089638233185e-01" purity="1.7508624494075775e-01" nType="-99"/>
          <Node pos="r" depth="2" NCoef="0" IVar="-1" Cut="0.0000000000000000e+00" cType="1" res="1.4958904124796391e-02" rms="1.4186295866966248e-01" purity="7.1034079790115356e-01" nType="-99"/>
        </Node>
        <Node pos="r" depth="1" NCoef="0" IVar="0" Cut="3.9370083618164062e+02" cType="1" res="1.6359061002731323e-02" rms="1.2268316000699997e-01" purity="8.8357239961624146e-01" nType="0">
          <Node pos="l" depth="2" NCoef="0" IVar="-1" Cut="0.0000000000000000e+00" cType="1" res="3.4528043121099472e-02" rms="1.3796670734882355e-01" purity="7.4572843313217163e-01" nType="-99"/>
          <Node pos="r" depth="2" NCoef="0" IVar="-1" Cut="0.0000000000000000e+00" cType="1" res="1.8147442489862442e-02" rms="1.1331762373447418e-01" purity="9.5624148845672607e-01" nType="-99"/>
        </Node>
      </Node>
    </BinaryTree>
    <BinaryTree type="DecisionTree" boostWeight="1.0000000000000000e+00" itree="60">
      <Node pos="s" depth="0" NCoef="0" IVar="7" Cut="6.6815671920776367e+00" cType="1" res="3.5140851978212595e-03" rms="1.3199380040168762e-01" purity="5.0194191932678223e-01" nType="0">
        <Node pos="l" depth="1" NCoef="0" IVar="6" Cut="8.3295468750000000e+03" cType="1" res="-7.4589638970792294e-03" rms="1.2073955684900284e-01" purity="1.5292035043239594e-01" nType="0">
          <Node pos="l" depth="2" NCoef="0" IVar="-1" Cut="0.0000000000000000e+00" cType="1" res="-2.3099429905414581e-02" rms="1.1432844400405884e-01" purity="8.9809313416481018e-02" nType="-99"/>
          <Node pos="r" depth="2" NCoef="0" IVar="-1" Cut="0.0000000000000000e+00" cType="1" res="2.6531260460615158e-02" rms="1.7360612750053406e-01" purity="8.5330885648727417e-01" nType="-99"/>
        </Node>
        <Node pos="r" depth="1" NCoef="0" IVar="5" Cut="2.8560195922851562e+01" cType="1" res="1.1898886412382126e-02" rms="1.3940399885177612e-01" purity="7.6863873004913330e-01" nType="0">
          <Node pos="l" depth="2" NCoef="0" IVar="-1" Cut="0.0000000000000000e+00" cType="1" res="2.1171951666474342e-02" rms="1.4000532031059265e-01" purity="8.3204144239425659e-01" nType="-99"/>
          <Node pos="r" depth="2" NCoef="0" IVar="-1" Cut="0.0000000000000000e+00" cType="1" res="-3.4724693745374680e-02" rms="1.2777142226696014e-01" purity="6.4701899886131287e-02" nType="-99"/>
        </Node>
      </Node>
    </BinaryTree>
    <BinaryTree type="DecisionTree" boostWeight="1.0000000000000000e+00" itree="61">
      <Node pos="s" depth="0" NCoef="0" IVar="2" Cut="1.4282445609569550e-01" cType="1" res="3.7468620575964451e-03" rms="1.3232369720935822e-01" purity="4.9829998612403870e-01" nType="0">
        <Node pos="l" depth="1" NCoef="0" IVar="1" Cut="2.2007572650909424e+00" cType="1" res="-1.1349949054419994e-02" rms="1.0865111649036407e-01" purity="2.7614349499344826e-02" nType="0">
          <Node pos="l" depth="2" NCoef="0" IVar="-1" Cut="0.0000000000000000e+00" cType="1" res="-3.4187309443950653e-02" rms="7.3994703590869904e-02" purity="7.4765845201909542e-03" nType="-99"/>
          <Node pos="r" depth="2" NCoef="0" IVar="-1" Cut="0.0000000000000000e+00" cType="1" res="-2.5333555415272713e-02" rms="2.4797450006008148e-01" purity="1.8832457065582275e-01" nType="-99"/>
        </Node>
        <Node pos="r" depth="1" NCoef="0" IVar="8" Cut="4.8912239074707031e+01" cType="1" res="1.0219161398708820e-02" rms="1.4076784253120422e-01" purity="7.0009219646453857e-01" nType="0">
          <Node pos="l" depth="2" NCoef="0" IVar="-1" Cut="0.0000000000000000e+00" cType="1" res="2.2031063213944435e-02" rms="1.3748213648796082e-01" purity="8.8386666774749756e-01" nType="-99"/>
          <Node pos="r" depth="2" NCoef="0" IVar="-1" Cut="0.0000000000000000e+00" cType="1" res="-4.5439903624355793e-03" rms="1.4736375212669373e-01" purity="2.6812165975570679e-01" nType="-99"/>
        </Node>
      </Node>
    </BinaryTree>
    <BinaryTree type="DecisionTree" boostWeight="1.0000000000000000e+00" itree="62">
      <Node pos="s" depth="0" NCoef="0" IVar="4" Cut="6.5204901123046875e+02" cType="1" res="2.1852187346667051e-03" rms="1.3384233415126801e-01" purity="5.0136709213256836e-01" nType="0">
        <Node pos="l" depth="1" NCoef="0" IVar="2" Cut="6.9935601949691772e-01" cType="1" res="-4.9590622074902058e-03" rms="1.4128139615058899e-01" purity="2.7778273820877075e-01" nType="0">
          <Node pos="l" depth="2" NCoef="0" IVar="-1" Cut="0.0000000000000000e+00" cType="1" res="-1.4174013398587704e-02" rms="1.5083537995815277e-01" purity="1.4171840250492096e-01" nType="-99"/>
          <Node pos="r" depth="2" NCoef="0" IVar="-1" Cut="0.0000000000000000e+00" cType="1" res="3.0411250889301300e-02" rms="6.9334164261817932e-02" purity="9.9512535333633423e-01" nType="-99"/>
        </Node>
